solver_type L2R_L2LOSS_SVC_DUAL
nr_class 7
label 100 120 30 50 60 70 80
nr_feature 2816
bias -1
w
0.03013099623935324 -0.07008667396124715 -0.03501408743646493 0.0228021603340184 0.01486818883754817 -0.0004532997135638744 0.0754363204980161 
-0.06386622947566166 -0.008740731748362429 -0.04095864785514976 -0.005843679542408581 0.03948455294949054 0.001603031167648323 -0.001958530076903046 
0.01392721561118787 -0.0553496566704458 -0.04994504353845073 0.141574663914784 0.002874917262758845 0.01420727020017596 -0.1139162119753261 
-0.009918823801579234 -0.2754672417198129 -0.05366195819193439 0.0734694435094798 -0.03627577458522632 -0.0318373119285027 0.3487050967817009 
0.04168064931984352 -0.08526190591403113 -0.02188003383732769 -0.1085679072191806 -0.01067444840991343 0.08874625236818155 -0.2914411348382716 
0.08502885174261723 -0.1190852352436559 -0.1143133895002322 -0.1472963745344273 -0.09436907078607022 0.04740965985987412 -0.2196292659152496 
0.0360478047858416 -0.01779240361912496 0.03847989589622338 -0.1113609305327875 0.03129693486959754 0.0107963271776201 -0.1316021442387661 
0.01394763308376695 0.01831461510037317 -0.1116811666338019 0.02986100535109918 0.05093999671153241 -0.02180696112857801 0.100607720650889 
0.009506873065628599 -0.0992281072098829 -0.0479437022891548 -0.1265623613058811 -0.0145896734689278 0.004035614779405157 -0.1020899572252289 
-0.00599520567841747 -0.1635641335688388 0.07856024859649605 0.04292727221620293 0.06848789543512977 0.122087374311634 -0.2322168008829645 
-0.2143285305192013 -0.09167283590654138 -0.04697151368736689 -0.1324030054912816 0.02920884182619761 0.09323135868196057 -0.09279010130335567 
0.00149257781741269 -0.06529284743957237 0.02902482820291776 -0.006097075319598455 0.02349192559634165 -0.00368673064387799 0.04554012577080183 
-0.06800882056520755 -0.0265296329013343 -0.01928123564293596 -0.03204431160889354 0.02970700861068271 0.005029282703344562 0.02162280526193377 
0.01506401179092866 -0.07991885987077196 -0.02219725540501783 0.0801214635031347 -0.003235457081404304 -0.002441724150397039 -0.06123821582905446 
-0.01591862252837204 -0.06769695644051271 -0.1549635021148753 0.1130705607840179 0.02987713481472488 -0.06669744558197636 0.02953570484433532 
0.02670507580743174 -0.04276549774473153 -0.1134224256029326 0.009808074018830274 0.09284775536160207 -0.01465794488063288 -0.2118187997047125 
0.01179388656315722 -0.07636393593845459 -0.09783563189173325 -0.1146019947700139 -0.1138741024827846 -0.003340105119974263 0.07584757752038773 
0.02740045775698213 -0.02939931501298686 -0.0293878788304695 -0.03050283174113526 0.03006097653374683 0.0146063845898179 -0.09296840508238838 
0.0496314892387338 0.04076773765335524 -0.07629891369632748 -0.1129676577539139 0.03778259111476855 -0.001081814483343806 0.01946928840318165 
0.04266390169447046 -0.02583465224491046 -0.1306854044603171 -0.0362628063782393 -0.06407271915378238 0.01017566018230788 0.03113673329629518 
-0.1291351910470022 0.02366768232943453 -0.01400984958642592 0.01450104796574359 0.03510120061089713 0.1068413994048427 -0.0639716065780712 
-0.01675888772304548 0.0253497467946016 0.05064092797143614 0.00659716352997301 -0.1061852169959888 0.00633887861547395 0.1608319728038253 
-0.01797336075394647 -0.09678485235812864 0.06588317562447894 -0.02642508060469723 0.01882526549976688 -0.01874313603702499 -0.03619890806601244 
-0.07965686328707762 0.002648540298187272 -0.03796479910205344 -0.01324769636493 0.03031663211403287 0.003640297661220772 0.09604715911820698 
0.006848869790495104 -0.1312456594737047 -0.01308315454906201 0.03650634830483645 -0.003610250605652673 0.006039756352243644 -0.03016013167350099 
0.1046027632580933 0.07913994354626788 -0.2092328540583074 0.01121659381462286 0.00757196472628931 -0.05645459491083198 -0.03194444329525381 
0.01364782628466011 0.01596266929003638 -0.03541270050094507 0.04485772521600341 0.02371744282810152 -0.08784730845890872 -0.1391857414234859 
-0.09338746320758758 0.02200542733896045 -0.06297053576473267 -0.02341610095461134 -0.0436070778990763 -0.01015494876580882 0.0181225828975489 
0.006355740045924149 -0.04209925567019063 -0.02509521981580816 -0.01853785202030194 0.01809237303997432 0.01324653806222754 -0.03602012655605136 
0.03414836818584199 -0.01831756966619775 -0.02441867911876096 -0.04879928621250704 0.009616689380159995 0.006125390248531017 0.05563483863706018 
0.07034774845064484 -0.005455896058574076 -0.1074014960131009 0.04082328864711122 -0.07078940732291397 0.04388538091893938 -0.07416760115643334 
-0.02654763805368313 0.08698932848767023 -0.07691071099026886 -0.05332287164190577 -0.01113576659314779 0.04173910484835767 0.1283665497022978 
-0.0492588241634014 0.1724537641570785 0.05170937856511929 0.05905024931390735 -0.106197744329747 -0.02914314737764359 -0.0590716646506827 
-0.02891210820329965 -0.09353910300432078 0.03512534213957573 -0.01307581575345218 0.009928789546627013 -0.00777587206858163 -0.0001641554774767669 
-0.07799296212719668 0.02194680456674847 -0.01804932297766645 0.001727219545479999 0.02145043575908005 0.01191619417542634 0.07674476440042025 
-0.04314064885778648 -0.07017539619600038 0.02696542984194262 0.004046591245652445 0.006016254442794387 -0.004755097680881557 -0.04635676894865149 
0.09373937248956001 0.0262459300017431 -0.1941264058678021 -0.01758568077797757 0.003018414191394148 -0.008477383963633005 -0.0854285720719383 
0.03573150134394983 0.1528261656549332 0.03662863875681675 -0.1058371710410688 0.005253076407218467 -0.06225427952007483 -0.1277908053720623 
-0.07128662911273148 -0.01072019508152864 -0.02056170092532719 0.03215673930905473 -0.06194634033092204 -0.0664847812316806 0.1141011292214715 
0.0004625997286407636 -0.04936815345584416 0.001100677805456832 0.06208643105514729 0.004692501106666309 0.00702104576683675 0.03290160755392144 
0.05925055326047172 -0.01380741945951023 0.0877621817953093 -0.0312440440780326 -0.02962374047059514 -0.008495966668870057 -0.02836979982160784 
0.05780313332393008 -0.07103110460806883 -0.192291096651555 0.06326488277615284 -0.04149200819124396 0.04982301156345867 -0.04535279402377302 
0.02343332043136103 0.1356705973292024 -0.1017951554463861 -0.01832281147674321 -0.0410417072174389 0.01331569706439252 -0.04335218714892401 
-0.08733323380350801 0.1876027417870045 0.007016112233195268 0.01374749596167224 -0.09071724704697536 -0.04973784004792201 -0.02700930580870933 
-0.05677850617296019 -0.04608933514217858 0.02532568511449796 0.05047317001007274 0.02014741953972729 0.0002190258768378816 0.009792788157506208 
-0.05400694458054495 0.03410515284128127 -0.03595812364321542 -0.04196069993448314 0.02065016275604156 0.00136157047946112 0.1591372497357858 
-0.05156411882916846 -0.1342599867031364 0.03656945600494719 -0.0002875965776578838 -0.001326052212055904 0.003151030199536362 -0.05976545964725112 
0.05673863163274905 0.101150700375772 -0.1977299501228257 -0.06871098235447576 0.005753761932120978 -0.01336804196950216 -0.1124696693539559 
0.001298753411784552 0.08997325663455855 0.07399518225862753 0.02435209259041958 -0.02124396668453528 0.01180200614963428 0.03259184090601742 
0.01975830881860252 -0.03740220028948793 0.03556691203237594 -0.1216526943229016 -0.004180455655244122 -0.0792178276402601 0.1080269684324597 
-0.03001358408010072 -0.02327475477170374 0.01514794295288136 0.13489194726391 -0.007708212263160693 -0.02958980801937303 0.02175566893112626 
0.01842137571681481 -0.03653193682055538 0.1536788105146385 -0.09300637018756565 -0.05099136008982541 -0.01877145588409037 0.03444653644223864 
0.09337734869506217 -0.02958388482731467 -0.2421756216869063 0.149465346156946 -0.1119178727601863 0.08990990297768801 -0.0709294724306512 
-0.07654276297824845 0.00904429451033158 -0.009533669791587802 -0.08589311856104816 -0.0385169772294534 -0.1008842278442828 0.1336847302799789 
-0.02213247425994791 0.1879088868279786 -0.1010173418515838 0.1183706040478786 -0.06057803532367489 -0.008096834096342846 -0.06181911069529166 
-0.02320934189095761 -0.03919902961739789 0.01576538765260129 -0.03078454716173462 0.003384747324943849 0.02205176405584029 0.07920252710461009 
-0.02749745990862786 0.02643628970368334 -0.042601502119306 -0.08426602756043222 0.02426618298740215 -0.0003381944957068938 0.1654823336679411 
-0.06785665216529843 -0.07700002334760807 0.0282044412948405 -0.07381004047321316 -0.001830252619348164 -0.0149671135927921 0.007067097464466841 
0.07704590803382841 -0.01988891659686048 -0.04880524224585988 -0.1023705664270561 -0.03085393320275246 -0.02997678355239393 0.08640897352126085 
-0.0733542719897332 0.03048855143030391 0.002021170448975266 0.0795168756782143 0.04988533546706751 0.04019710981313316 -0.05376182170121863 
-0.04067827472757833 -0.02929795926047508 0.0246597927287316 -0.09511584753249563 0.02256963039120087 -0.0491576247111871 0.03557155573875633 
-0.01910379896884878 -0.02445044595369238 -0.005801318789519822 0.1264242883636282 -0.02319491134548829 -0.03470774362470021 -0.04717967358981074 
-0.05835081804546371 -0.01655077205544185 0.09990986445617442 -0.01871830671295509 -0.05799731588982637 -0.03733452608872424 0.1693093704581702 
0.1307567052060831 -0.1060614030655656 -0.1233763807668368 0.2677061128356237 -0.1510123754561206 0.1195330512139805 -0.01438128990593436 
-0.01895116048120925 -0.03603293980327314 0.02377500318782655 -0.05595191557892611 -0.04116526597748385 -0.1447285750507852 0.09290037251993431 
-0.08345646909038913 0.122914717434516 -0.0631420799981912 0.1066350446338982 -0.045229487299734 -0.02632536870537141 -0.06314487876888633 
-0.009644249475667634 -0.008150491384432907 -0.007184602341321291 -0.09014523241054076 0.01007763309344325 0.02171387434081761 0.1094063513200375 
-0.03275201751952185 0.002975620913659928 -0.01505269469278257 -0.1244846514556965 0.01902987828366602 -0.006381409208182011 0.1365385208341934 
-0.03085375404360753 -0.07470653150985897 -0.04968752004060347 -0.07595215948419959 -0.01231765569109742 0.014117136065779 0.1044709156260282 
-0.04659647275548596 -0.1379580054493867 0.1303364869808402 -0.05091729174255541 -0.04592694803941223 -0.02464201142488662 0.1360081533474614 
-0.08524045285287477 0.03903390232832114 -0.07254737925100929 0.04021734779895285 0.07452920101864065 0.03152667279570612 -0.05778398748254112 
-0.04945883305486422 0.01138600030289712 -0.02716840635223714 -0.04639255021288554 -0.006575086089143384 -0.03250937571984094 0.0451646385687353 
-0.03558381020573257 -0.007230087246069167 -0.01362393132438188 0.2278543143482181 -0.02073595618628202 -0.06712244915790985 -0.07831047804904154 
-0.0644599605887904 0.01156410670823971 0.1485816272259104 -0.007344242665417497 -0.07152530352489578 -0.007307840482822815 0.1217365653349061 
0.1506574636021068 -0.1464934435483747 -0.2019561000746301 0.2648713997843991 -0.1825787944915362 0.06494916661167678 -0.02319869896310116 
0.01880597555492067 -0.02180955705828506 0.09164242100241504 -0.01159196094679598 -0.05413615377368546 -0.09595834747605551 0.08297654825486157 
-0.06494978034760164 -0.01000100284991381 0.07173415560263428 0.03462115102334103 -0.0320688295321781 -0.03278469347945293 0.1080739241233924 
-0.009420566075245241 -0.006717341076541585 0.01823924326790608 -0.07159630954635651 0.0118625495696216 0.01359903180572013 0.1174094201456708 
-0.031809413518917 -0.07041147683328985 -0.03001743132969549 -0.1307593258232664 0.002411256200667926 -0.01805472075272766 0.1332667403325495 
0.08286900275113859 -0.08682542389701285 0.01611315630455443 0.04733363276227941 -0.03936484578816375 0.02181505985100659 0.1463565739248565 
-0.07527538905926483 -0.03781674038642323 0.0558648128083456 0.02265064799588046 -0.02781943636352885 -0.07704724325603708 0.02319923129938078 
-0.2171526800778329 -0.03248360147989802 0.01236747148235009 -0.07891388311232869 0.009639767999767275 0.1125507449863225 0.04960668606224598 
-0.01920723698318142 0.0340206610644222 -0.09600170065483046 0.01121522141132018 -0.02863308298582201 -0.04748733242338019 -0.07362090276838308 
-0.02645497513675486 0.008312585198353368 -0.03273288443550582 0.2138557887540745 -0.03133121311946548 -0.06549800387029853 -0.04922520598873717 
-0.0854207315775499 -0.03891245010868079 0.05780603050226366 -0.01993780148544638 -0.07930391610621938 -0.009388667716230564 0.2349466128436042 
0.1197281223540571 -0.1349840678952632 -0.08351611557733372 0.2947788325792097 -0.2112394830237907 0.0819167575856523 -0.08484154772774502 
0.08587794838044217 0.02097850545623207 0.1522477412673695 -0.1207891852599895 -0.01580103214108463 -0.1054351262993208 -0.008058841719917439 
-0.09256277853165787 -0.04454119839043667 0.08891947022660324 -0.02500317218613607 -0.01394965867536061 -0.006027643912860777 0.2198706382739734 
0.004116400908961547 -0.02792265886277035 0.06065852564117136 -0.06740406320140691 -0.001151785152174987 0.009602531201422992 0.0874732708579283 
-0.05679449699934475 -0.1178145013527636 0.007072222560352818 -0.1036111625320679 -0.007943758371066588 -0.0207193238479197 0.03897986850637913 
-0.01322423292785905 0.05413180689646796 0.09489519223380065 0.0795891156219441 -0.06493431655421766 -0.03384139196679115 0.1193798910029425 
-0.02029301909668037 -0.03639831290855001 -0.02729946646912863 0.1168075180789249 -0.004168306552072996 -0.03374605360765288 -0.005423372680803606 
-0.1254332803612274 -0.1092428972394641 -0.03310862571904294 -0.1591796346455199 -0.006426854932596916 0.08587559682070818 0.03272561628925134 
-0.01644670213264279 0.06471644552792577 -0.07402196887999261 -0.03209957810518325 -0.08319512452073952 -0.02886183049639111 -0.04067813022898745 
-0.03023889828796253 -0.006891778190286317 0.007653087564599937 0.1876919355365482 -0.02153113834531391 -0.04149435185356297 -0.06753586532019078 
-0.05508477085191762 -0.1312803837340633 0.02839135014111293 0.02499208933411021 -0.09334666211638391 0.00365716496947115 0.1000634282485935 
0.05836213905600195 -0.0820754866911356 -0.07630694258483758 0.1362033547609362 -0.1196103863071806 0.06596550688148368 0.138894157397032 
0.02645576972642117 0.08211114533200708 0.1592821518650554 -0.1102701004817868 -0.02348812897362398 -0.0950412294388738 0.009522123374420153 
-0.07674462604867935 -0.07589482403983927 0.133685195536763 -0.1538770124567551 0.001237582550415603 -0.01014283588374131 0.03906996028118531 
-0.009450902679957308 -0.01612632680233502 0.03864723788188226 -0.01595641123465092 0.005470727935064027 0.001788030416959766 0.05016455480753805 
-0.009134690465466992 -0.08428862784831187 0.09847958201475927 -0.1141004147607675 -0.0287540460011869 -0.06823754525251592 0.05538606420879938 
-0.00877148793316662 0.07682468282216037 -0.07968249811461815 0.1107476981647487 -0.04292511416001211 -0.001708798216171282 0.02889210280532066 
-0.09963308628729253 -0.05162771255892866 0.001915570438121761 0.1312082232108971 -0.001290898358522869 -0.02507187135369753 0.04065191073501993 
-0.01860381212406132 -0.01997210815503988 0.02415448497871487 -0.1412797390458702 -0.04964408189814351 0.01187847878287383 0.06373263607224711 
-0.01677288148335974 0.06093755767263598 -0.07060952738976942 -0.03741915044837722 -0.07580481230902467 -0.007910422167583782 0.02461477916005914 
-0.0340486206613775 -0.003300333782995279 0.01999088353800917 0.1428380471315827 -0.007010467488961554 -0.02524375214168704 -0.09028317747981346 
-0.05981663151782256 -0.1764224142351243 0.08722686420520853 -0.01349918198176181 -0.1028984194710459 0.02678773305643825 0.07186231266491039 
-0.02737828960159443 -0.03001208251391314 -0.08683227784750547 -0.07531130334123097 0.03313093242899566 0.04147858293145262 0.03011569915015068 
-0.01722473572968715 0.06934916028115083 0.1020292570011771 -0.08706583844494103 -0.096089623625063 -0.06199938031679213 0.10079724109557 
-0.05683397035073423 -0.01232216448296203 0.1411773004255523 -0.1641901632999179 -0.01065326252052828 -0.06936179668070823 0.04917974010367263 
-0.02260214447381117 -0.01967239034195575 0.05814319581309411 -0.005898673667538035 0.01154257830177171 -0.009340233068828089 0.05586297232909643 
0.02478980727743195 -0.09704292086237416 0.06961669732478822 -0.02640783912218282 -0.01486364629297211 -0.03815314848808014 -0.0773965246007773 
-0.03854572371604648 0.07646243964781352 -0.06852792076160122 0.08856412055299535 -0.02227211347935252 -0.02622884618366798 0.1117058579209331 
-0.03613130782082147 0.05813832310261218 -0.08205388773468421 0.07671154625846291 0.0353997780813719 -0.0764279390560762 -0.1042905884453109 
-0.02601404753457582 -0.0184570303286121 0.04936778790496524 -0.1374603208955156 -0.07568746724536325 0.01469841661063052 0.275878238278022 
-0.01185263444360818 0.05860200015208369 -0.02562028994788962 -0.03962113967808099 -0.05703251027443957 -0.01069763570764106 -0.02437638318760127 
-0.03202596081780031 0.003744106348202535 0.01643723386324542 0.006870545209506881 0.004505394706636106 0.01045180017092285 -0.07725691746746041 
-0.0828731968324114 -0.1581889302676341 0.0214028259736056 -0.006126726394061408 -0.06009157899602452 0.01264595396116616 0.05325101406722093 
-0.07071380604062821 0.03088658744503953 0.07069612662793354 -0.134806436971342 0.026137745590192 0.04483554588704514 0.05386128439149664 
-0.08950986727591125 0.04860035958453448 -0.04634284483172773 0.005233532752663476 -0.02068204850053451 -0.08468491760638944 0.04581854069589544 
-0.05827249846461974 -0.001283865627128847 0.06347313192164192 -0.2336463717629397 -0.08076440055501495 -0.07304825503380291 0.1027460652675851 
-0.02798685818910656 -0.04789197061455525 0.04165000171546594 -0.01311497377067932 0.0224049885490389 -0.002440090266189572 -0.004526413046673638 
0.04563636874904432 -0.1318173090290949 0.1962481477623296 -0.06592758608799908 -0.04830172636532802 -0.0916733409495384 -0.1240317060303965 
-0.1382582947222612 0.09670959221502996 -0.1459057638556141 -0.06246616003183485 0.02771829900204797 -0.009787615467393745 0.05762858974301668 
0.08672940924982567 0.06665284875864115 -0.1867477150866808 0.09330043525781265 0.02576228672275183 -0.0318691202444289 0.101676944433572 
-0.02869087210046349 0.03202405038701173 0.04956914329426079 -0.05656216071237041 -0.03085482091451131 -0.03083192148047777 0.1140801987795002 
-0.02015259350995117 0.03913425833116507 0.002601860939481863 -0.06347608221577455 -0.03175921183535881 0.01408443026974444 0.02209351385738795 
0.0003355590428889492 -0.01196104513515773 0.1046525779254907 -0.09521902219684197 0.02292637456563236 0.01062527973050062 -0.1192332610559395 
-0.1075654265898142 -0.05245795719462708 -0.04283773940673903 0.0002941231411706891 -0.07378534869066083 0.03887113112153524 0.07209169859214419 
-0.03879052723356036 0.0638154344860359 0.05375571571147122 -0.1705038021434154 0.1195599026083453 -0.04904582690302792 0.09147197591641723 
-0.167320342826883 0.02238654865037831 -0.09433895074952621 0.08145996082113083 -0.07783588337729551 -0.07531798072878726 0.06479113318992472 
-0.04872547893936677 -0.01958212551702814 0.05397477530015918 -0.2134115952822363 -0.0785086787161017 -0.06082384093860487 0.03630129604785926 
-0.0008301918766849986 -0.07385080774174926 0.02023992155361509 -0.03067801339201958 0.02351538593087619 -0.0177842842827049 0.0132553747226546 
-0.01565508328667989 -0.02290445196940914 0.08836309297276818 -0.004836187956733521 -0.09309376025860505 -0.09347895598996163 0.08545349115523239 
0.0108227631476655 0.05705229347105586 -0.1307018296196016 -0.2007219708163686 0.09650960040988858 0.00474323823007498 -0.006533681917103869 
0.00037212365726177 -0.01163119724890361 -0.151140307227088 0.1229894531654861 0.005870380914691219 -0.04191839502589272 -0.04760110635839374 
-0.04311828764119833 0.07668371647544917 0.03501280768226543 0.04026940468167455 -0.0331486418250851 -0.01361947407540945 0.06884024992156113 
-0.01385237048364076 0.00841415696021003 0.005711557859864776 -0.07663215889654336 -0.02280558561432203 0.001883988113089723 0.0775582829602373 
-0.007599660065911322 -0.00274489019296882 0.1308125202900182 -0.1983759680382144 -0.007808379599071351 0.01327642092885327 -0.05139418979298696 
-0.09783678147547648 0.05887469196786372 0.06811767818008557 -0.04990213616748965 -0.06436443203661145 -0.007821183100509169 0.06823299732892556 
-0.008727554107837583 0.01289594623746631 0.008094744982978361 0.04401901974163354 0.1534687222545554 -0.08312456401635711 -0.06738570707697462 
-0.139295492264372 0.02621856850794283 -0.12087509234494 -0.04177617224624832 -0.06330720946131584 -0.06132518250293832 -0.03789000906345857 
-0.03168379368713529 0.0112949721116918 0.01421394513117021 -0.1375148911159911 -0.05709211514492758 -0.0643488055256502 0.1087393148830333 
0.02539412456089067 -0.07268423181370162 0.05489128262948202 -0.05607014456506164 0.02543788341586577 -0.003270957267252506 0.00493068023200851 
-0.03351754738046145 -0.05285995444918749 0.01198095392299213 0.02050026545688383 -0.01700902806946557 -0.06407193620216596 -0.2996680472360619 
-0.01624975739436587 0.07815969438097489 0.01921685788998731 -0.1049298715106813 -0.06992473449217151 -0.06316587759154678 0.3581077538333118 
0.03577195580171188 -0.009608681799089523 -0.2757803159852146 0.01487392614644881 0.02767502318839868 0.05090460090622656 0.02099719802371226 
-0.05190199293992134 0.05357897036042882 -0.005154515439576844 0.08592446461719114 -0.01009048487228765 -0.02653916060671616 0.05463911936858091 
-0.004699251970436715 -0.02935676921509553 -0.005100311721767159 -0.03256580093217729 -0.01953543635002896 0.003832305368035361 0.01665255977711032 
-0.0002412073026544752 -0.01676064476288228 0.1171202584237522 -0.2897532005489905 -0.0197464268557373 0.0009217941979708999 0.02915620557220638 
0.04686664289407827 0.001942868677235572 0.0781502798348679 0.0219615673463617 -0.0621590225714601 -0.02995823644921716 0.01450277784817596 
-0.03062491051477543 0.07238960364753221 0.02953635249342662 -0.01514936768496236 0.09078003310196704 -0.103018805126976 -0.1809242889933148 
-0.1257655447554351 -0.0416980923901555 -0.1053433936148867 0.04643746432116062 0.03246948094952585 -0.07130097798549029 -0.03999442057952234 
-0.008502228124386434 -0.007967831500079693 0.01995687133146724 -0.1477862382427787 -0.03884523316185771 -0.03759131824950351 0.1091953562504773 
0.0364111514648235 -0.08725169741534436 0.13497261506256 -0.1200041952563541 0.03816117660040197 -0.003751450977061302 -0.1551280455238641 
-0.003868188862191983 -0.004407338906018382 0.07122212763817477 -0.03652085972092538 -0.05929778252209189 0.03447485609050754 -0.1886912793387124 
-0.07545427560906899 0.05461764990959385 0.0120443384848776 -0.06919612662232284 -0.06417720502856099 -0.1233704264061907 0.2028820474053935 
0.07526445863340046 -0.09448555181039958 -0.3384913956629459 0.06445828243492643 0.01399763974128639 0.1152873362795716 0.08646585264765798 
-0.03509560398431384 0.03507858000472941 -0.04000695322054856 0.1205292960087725 0.001174074985239614 -0.01861683364634872 -0.001851191308615724 
0.01565398326695307 -0.004290332067474528 -0.002914945340758066 0.002005172360462542 -0.03932372811861025 -0.002647642129195616 0.008659852307356745 
-0.01066436377698429 -0.02805960388960957 0.0946784394627244 -0.2569764974069453 -0.003648107660162951 0.006833328247317928 0.04830588569477409 
0.06353324053769958 -0.06777700599961821 0.07012179579671793 -0.02351405704842928 -0.03906657160800591 -0.0677066880604812 0.05474108470626885 
-0.04575251599047388 0.04229674157205473 -0.04258856074334311 -0.02705705606470299 0.1571195920640636 -0.1157127349572661 -0.194535216363098 
-0.1007808156150931 -0.09307040160627301 0.00467143148151273 -0.02047869979751875 -0.0162612778725092 -0.03678528979702583 0.04807069006769539 
-0.0001430104990301269 -0.01221278714454248 0.06671057481886719 -0.1165035330227605 0.008865362451874947 -0.02920652858195461 -0.01925062127955727 
0.05466807531678162 -0.02257750186915708 0.1927566110791901 -0.1170876963147065 0.04116692955896568 -0.01782305394182881 -0.3324228612473323 
0.185036040885945 -0.1024399897377203 -0.01290298969019816 0.1457749739356189 -0.1193929953601983 0.06501268668145604 0.02050664432438582 
-0.2354048170149742 0.06690067299350377 -0.04118987835768321 -0.119211976082295 -0.07111948024077601 -0.06407150215102989 0.1945361817628047 
0.1163887072869866 -0.1585631411683754 -0.1513281540693725 0.0646997195191462 0.0540487011600129 0.114969375449798 -0.1662263460928951 
0.002038460441515981 0.03946803328718076 -0.04850361635633096 0.1184775940585797 -0.01712754378935928 -0.03181311003146844 -0.001239572538675184 
0.04774771209530079 -0.02253176001163254 -0.01208559325081209 0.0249634607745223 -0.03630912191736568 -0.005404974234481208 0.0622629813867779 
-0.04849760820224529 0.01423520082190683 -0.08644189085871566 -0.1402650582778692 0.08287825606239058 0.01257423198264854 0.134328218734077 
-0.004512459840050755 -0.1229513668758522 0.06520267581597174 0.02765655515688044 0.1037095686748042 -0.1339312885998302 -0.2682669360689413 
-0.02385795698720226 0.05790449426513691 0.1275140106999996 -0.1828506129840723 0.08545074447409129 -0.07534841945518744 -0.1780771929805683 
-0.07677029750817677 -0.1493835505296475 -0.004134531515882787 0.005716762079039727 0.02546643520929421 -0.04463734469206466 0.1252546754926203 
0.003997736815648289 -0.04096455258220524 0.03822055777160148 -0.05094240436893484 0.01527656211750832 -0.01294442196009969 -0.1044289269138033 
0.03649072037724112 -0.011058919856795 -0.1531279710841943 0.05525390170116382 -0.008595400441027534 0.02697568634122534 0.1630331919213518 
-0.0495084393447788 -0.02515262214435346 -0.1112741110777882 -0.01510983275378113 0.05339768645696388 0.02935999295530374 0.06201290918680265 
0.01237581899273018 -0.01463528886982744 0.02000006196463977 0.05278545562095906 0.01893248938772689 0.01655657355681274 -0.05902681989297354 
0.01601942937284541 -0.281000109372854 0.07751701575824371 -0.0807970619924101 -0.01060066963936333 0.05504922694350482 -0.03023200011652289 
-0.07943314576804322 -0.02988626508727716 -0.02177239396144467 -0.04893565845232866 0.1865433404448516 -0.0002505536778594818 -0.2714475047364719 
0.06977722025624764 -0.09283085014690429 -0.1004909678027251 -0.0843281216332871 -0.02132685969160369 0.04612533908577902 -0.2380117438810632 
0.05025471139644281 -0.04285374777183082 0.01634095523657691 -0.0907061392605534 0.02163735336401992 -0.04888802818026096 -0.1527355314740879 
0.02611549335469415 0.02409996490704202 -0.1602857298357257 -0.03952135607525067 0.02283992050384098 -0.01780762364802508 0.1222037287457993 
-0.004950858959876367 0.003408372706090495 -0.1479054289027631 -0.0507535741512309 -0.0594136359924733 -0.001365124828230663 -0.04039271840490052 
0.06559866105420088 -0.04752422178207287 0.08862899782108213 -0.0195669069066709 -0.06705448681069201 0.04221398220953122 0.1346943193031012 
-0.134848064339242 0.06031072753174594 -0.1326796316975312 0.03464989241373927 -0.05653186276596324 0.02479498526484081 -0.129117250012338 
0.005568433627122745 -0.01244068773731362 -0.08581517644837401 0.08343755795403311 -0.02904551381267489 -0.006894768873403385 0.08982697540952098 
-0.04445659078790346 -0.01884303704771732 -0.08759150926998663 -0.02335317350911173 0.0285314573652948 0.01397768073415574 0.0434873033892169 
0.003633854989381846 -0.01410541479414654 0.01610836699411636 0.04653081295558836 -0.00418343841599936 0.01408151796680297 -0.04414633314817127 
0.04646599148372642 -0.1881005780401453 0.08876039031906813 -0.04066045585147439 0.04679678720490724 0.02312271186203013 -0.257610231583471 
-0.1214098402215182 0.03107673566179248 -0.1210398694063281 0.04624747500730011 0.1354024613190751 -0.0309330063650778 0.08842581321370632 
0.06539273447639421 -0.007967213023896375 0.03595090206077175 -0.09257490660628981 -0.07674153596253061 -0.03101083167305447 0.06536475321711893 
0.04826042365418163 -0.07069988169545675 -0.07019983318639315 -0.04949182227184248 0.005062718823383471 -0.02383452595518763 -0.2003862774925982 
0.1374582219718525 0.05175744302441108 -0.1476587660842084 -0.11999709671792 -0.02081082568500432 -0.01013682881538662 0.01772121220727073 
-0.02839654008415873 0.05964525151527862 -0.2342149683330586 0.02730794267124319 -0.09603149647510145 -0.008846030765311737 -0.0161008794360843 
-0.01208758778321125 0.0512542005950428 -0.0142903621748224 -0.1291356126646531 -0.1223993521438945 0.02856813466642093 0.1638056315047071 
-0.006952122398414393 0.06815982540128099 0.04267777034880665 0.08735395852737973 -0.02453106709972679 -0.06618005873612248 -0.03098977462101462 
-0.01279713605854541 -0.02768465940681653 -0.01046822686709058 0.1017306147336124 -0.006683734457413617 -0.02167189693531024 -0.05413918832819255 
-0.03461299299921933 -0.0220220204136678 -0.07633545364418755 -0.003720441418503074 0.02529115494728906 0.003137652288182252 0.07151090632592921 
-0.004364930704100926 -0.02404574141094046 0.02213586204901751 0.04736270449888721 -0.02259226549965655 -0.006096822114601316 -0.1056585913417666 
0.09050104904014576 -0.1184231813887026 0.1253547192963617 -0.1682019951091025 0.05367425104339837 -0.001146575535144314 -0.0207443970669675 
-0.007771707537400373 0.09247809546967545 -0.1050413860870368 -0.003080886548636061 -0.04674988995176566 -0.002376516113295344 -0.05684659915649414 
-0.06639276371321209 0.09412886999658965 -0.01680385355833228 0.02264969907371342 -0.02826026013518128 -0.04317079078806115 0.1105613373175893 
0.04782663389300893 -0.0651032149236066 -0.02826176412884199 -0.03946524833379415 -0.006037513080693242 -0.03127000725791288 -0.1767277690857135 
0.12350718825274 -0.03502260584182203 -0.09509648370883673 -0.015360797966484 -0.00317956593317039 -0.004492361094076362 -0.06516517601374726 
-0.0214787800583913 0.1245847715260013 -0.2033108652305194 0.06267601590073602 -0.1974187130594655 0.004971047457000674 0.09936648524322286 
0.04918300963346661 0.01391067829881523 -0.01204442441505863 -0.119579346870585 -0.1026899628871014 0.008944448777941601 0.09869465598111402 
-0.06591825311793964 0.1010329515253542 0.03354081205836537 -0.04117568968735798 -0.007556999294310572 -0.08466685524235226 -0.164173714616193 
-0.03671540454449074 -0.05044836941426126 -0.01127313587520666 0.06557587360219828 -0.01709054799357538 -0.03173139262975069 0.02033327024517215 
-0.02453356717847856 -0.01270491402901464 -0.04472322292190774 0.01519088435701216 0.007715157066983768 0.003985002313809397 0.002273859256327661 
-0.0389007653802728 0.0313664058635692 0.03864923179713115 0.01207213843989854 -0.04226522560182829 -0.01702420990777221 -0.1581055415780844 
0.0396705148781054 -0.09720741873572922 0.1175728682268589 -0.1133335549839196 0.02036403475215176 0.001119815257712536 -0.0961371116196281 
0.04839232893724395 0.0552996930719527 -0.0430484810563222 -0.1245673877143529 0.01109657180846679 -0.03230888741776243 0.1292711499527857 
-0.005100413983647889 0.05326436148174451 -0.01668159993859685 0.03782146128190588 -0.06725067307802204 -0.02125702700000224 -0.02555843729275431 
0.04844595840664754 -0.04054458508675326 -0.008117004786633355 0.03203393121137101 -0.0006794894092180318 -0.0325596218912662 -0.1925899528582327 
0.09200370316158107 -0.009018967204594766 0.03291300713789976 0.05531020736219533 -0.01458696338972513 -0.01467008934201615 -0.1012591660673854 
-0.05158979109461613 0.01541164182071359 -0.211122031344069 0.04333847416357027 -0.1999375478825393 0.01348681305496379 0.04464282235582447 
0.08799506334018389 0.06005962736403376 -0.107146825249948 -0.02238007351979485 -0.1506000065742287 0.02972130146463756 0.05012670082841784 
-0.07718802720768815 0.05835385350993179 0.1248130349464856 -0.1962547377733446 0.07520479799530749 -0.08766520908713596 -0.0305977375936337 
-0.05156563222120494 -0.01715048222612129 0.05454462727925504 0.1251756216643013 0.01772166100846724 -0.04334582958480463 -0.0320766527531695 
-0.03710406663513852 -0.005827542561655739 -0.03761609573486682 -0.02786152794307822 0.003800609500505768 -0.007636788608873036 0.1516509225639646 
-0.06357579737058137 -0.02807043670778966 0.02666070001349911 0.002440525674148851 -0.05969035273928376 -0.01202666433414928 -0.1290534445875399 
-0.03050421442967204 0.01983122682248115 -0.04383501641357547 0.05652269802404971 0.0407612474251264 -0.01591386664761512 -0.08383451530030769 
0.01977974503663476 -0.05017477950456924 0.01964548510638337 -0.1389284583519875 -0.01241670588121742 0.04468565423657511 -0.0581662983096399 
0.10701261043607 -0.009244485787732225 0.05725437823080881 -0.123992132488261 -0.001455046140785684 -0.09170242858111564 0.03992933318979943 
0.0002445425894898863 0.000337239277107356 -0.0390719784277116 0.1064556015628591 -0.02467287846162292 -0.04822176876387447 -0.03929707626786709 
0.04339189288089983 -0.04011563613349917 0.1142632288055254 0.02533624240913058 0.002261923380262275 -0.03701281855518951 -0.2315138755514747 
-0.03152624264051869 0.009139989226958441 -0.2470492938540142 0.02517556287342653 -0.2335207768385169 0.0943349777436009 0.08814194027065984 
-0.002855545933677197 -0.0250117068250461 0.0271764611840145 -0.1198190542082538 -0.1001055664487179 -0.04686254121129097 0.08787210874003182 
0.02130832254849647 0.04887314007513792 0.0173092678713479 -0.1149363112221009 -0.003003698056921681 -0.05995000439751726 0.03758613242387005 
-0.02510564660673636 -0.008916516810253185 0.03422852636413741 0.03220510155394426 0.006293151082118508 -0.008298060334525056 0.02870883062155247 
-0.0284743730507987 -0.0114979917538798 -0.03320640088144531 -0.058869190937169 0.02200789028782073 -0.00401772287331531 0.1836549135587014 
-0.1152855115642598 -0.01874057909562681 0.02447061410687663 -0.06889190431048901 -0.04765536820025414 -0.03816412563693419 0.01186701812122496 
0.02189839015997463 -0.02680781509973899 -0.0175714004318045 0.05097400963225976 0.004769287631559723 0.003813847200845419 0.01533465016996288 
-0.01245016730812148 0.01423317863229514 -0.05118448628187586 0.006142081691701641 0.03359778863862058 0.005193458739607396 -0.2406266049593533 
-0.02516235201399208 -0.03248309484577656 -0.003701355687674266 -0.07834272784726187 0.007889459996032994 -0.05561375864708309 0.07418270308005018 
-0.01073169092199941 -0.0160118003122104 -0.02535306426620003 0.06969152957516681 -0.04216555806132893 -0.05071956141263488 -0.07830551190533826 
-0.106587341558635 -0.04413367168095661 0.04105512895507505 0.06560531391448647 0.002482529921227879 -0.02454231262040832 -0.02447310735389385 
0.02454314056018883 -0.0578105258630509 -0.09463458651218233 0.07886148898128846 -0.2540610875299986 0.1187504165164019 0.2355231393922314 
0.05132624244741932 0.02509293093235584 -0.002489360129356297 -0.06624595466958877 -0.08168271515357382 -0.0593627777191651 -0.1704238640584891 
0.01567237124227697 0.01819462727033003 0.04109520478181281 -0.0816016772373741 -0.04106158292158636 -0.0952088580435599 0.1042547586599586 
-0.01512365125601064 -0.0005038804044907673 0.008881955157746911 -0.1024460517323345 -0.005612219084842144 0.005325457966073873 0.09983480527780741 
-0.03541061009768891 -0.02385619601780344 -0.03748370425951854 -0.1083555423201801 0.01731973738856168 -0.01155423623987792 0.2433422698096311 
-0.1062171083055044 -0.07755028122477001 0.02887308761927159 -0.1071266313207593 -0.04899867175283394 -0.001910464240221264 0.1785799696863849 
-0.002066409498484926 0.02474557254894643 0.01391601577320312 0.1414388066310649 -0.01854895499032374 0.03985020886544059 -0.2884905191910864 
-0.04940167856415816 -0.03933573150528594 -0.01644606446073759 0.02440046460223342 0.05292235689000687 -0.05358265753565102 0.07151477520477274 
-0.07456736636948426 0.001461506126940758 -0.0692952044291868 0.0243610773829478 -0.02157648647022239 -0.03101270307615424 0.0006912213805475873 
-0.01588224017935155 -0.003415917169450047 -0.0218499721720309 0.1622865081653349 -0.05912517136567177 -0.06048127080972586 -0.05469321175320688 
-0.1197349875828402 0.02512141699082625 0.1347090992145968 -0.05688797222345963 -0.05114457252351845 -0.005753870845885495 0.04210370479000324 
0.04514880560114323 -0.1117597998989163 -0.2311735588356892 0.1512118452535538 -0.2001008042546975 0.1001204141044401 0.01742797228405438 
0.06952169012221129 0.006641040830657624 0.03753812922396897 -0.1026524173206215 -0.1137240772873975 -0.07526008946909241 -0.07983679141044721 
0.05022755211122169 -0.03135010436691989 0.1557584031038729 -0.04130954961395412 0.01551251556723557 -0.07512479108509439 0.08124725909040667 
-0.02126920236724957 -0.01294082535782346 0.02529631381680544 -0.1026952651181077 -0.001991621066402124 0.01011269067376356 0.07700114746509865 
-0.0572870659696882 -0.07517035281552276 -0.04246347851225172 -0.101985329162136 0.0007283245704890615 -0.0243027784542568 0.2730293890791449 
0.003442872181379906 -0.1130962732962419 0.07754940446711671 0.005617278303848207 -0.03654380464343775 0.0118349791517226 0.1136756358038885 
-0.0410188100396296 0.08727214267641102 -0.02813035590227095 0.09439136605791938 -0.0006551318152274981 0.008662536030197607 -0.09641042513681934 
-0.1324483238637759 -0.05022924437736385 0.04575486470880889 -0.04546848652094059 -0.03501094899595537 0.01526851641174586 0.003816096724192523 
-0.0451063982534643 -0.01837232280114209 -0.1215191937124269 0.08899761868283371 -0.0466725847826997 -0.05271573048036473 -0.07985520438760142 
0.01374301747192143 0.01306375384910522 -0.02822183067772218 0.2106485726285703 -0.07469706013054568 -0.0567048887381073 -0.06892711452272662 
-0.07828162219656905 0.006417010701204795 0.02880321664987987 -0.1889024455430481 -0.08931850871660524 0.0002303835431752389 0.09939805285660512 
0.03853041645856473 -0.09047688862142857 -0.1636132528272173 0.146790034962844 -0.2263584937799314 0.07757288297230266 0.02231243931671909 
0.05109081657793223 0.07272306101615138 0.1069902190390898 -0.1577921771129043 -0.03537118892984585 -0.08219021907707615 -0.2021524118089609 
-0.02411038990532857 -0.04965748655179294 0.1032275502764758 -0.1082082275510805 0.04233177895992322 -0.06373656241642128 0.120802824446196 
-0.007102768925839437 -0.04043249310114536 0.0497406445136913 -0.09662113131362392 -0.0325833958605739 -0.009473331384676143 0.09790030735488343 
-0.08677876969271368 -0.1220058754567836 -0.003746158543852127 -0.09368676483050969 -0.002947035703666511 -0.02825859447467492 0.1901782682993612 
0.0134292788389665 -0.001822458491682499 0.125557589457863 0.005074166190334946 -0.03117289299341473 -0.006704787064674665 0.007577847048054573 
-0.04069930976616121 0.0633001845726093 0.01203664852296966 -0.003534352051252045 -0.01072353397881728 0.04370897919945501 -0.05957718519784296 
-0.08757166759983723 -0.1215811571666546 -0.02672653324012362 -0.02514048476766818 -0.05332267903648168 0.0114583100577576 0.08939231561690697 
-0.02645385229557624 0.008595128756396418 -0.1381568191158697 0.09036467795725164 -0.08192637607840793 -0.02935307497154894 -0.04153044969183913 
0.03859285805923907 -0.01259760900742566 0.04553916490039424 0.1959596634664831 -0.06396325884679713 -0.04445464494397759 -0.2091131762236253 
-0.03777090498546815 0.007286729769213455 -0.03784138881493924 -0.1857377507864806 -0.1348636463480349 0.004449408600890221 0.2694375500156702 
-0.02597576529900286 -0.0387083242155043 -0.1403719768890662 0.07375520702139685 -0.1411547890795018 0.04125956656220672 0.08397379773406401 
-0.007981583842149725 0.147980019339625 0.09286725042635285 -0.1047642914409204 -0.02194056363063062 -0.07423447670274086 -0.1613253351091309 
-0.04750471265761377 -0.08378857244069243 0.08066026418366261 -0.2134218430827871 0.06525204053862924 -0.04726397719039935 -0.04033354276372517 
-0.01157404911990941 -0.0422817044790839 0.02061946427673406 -0.03524346022735562 -0.04259538081917071 -0.0152725166474227 0.0758259946765808 
-0.05789283560852165 -0.1263750962142678 0.08712931823323811 -0.1384038141758279 -0.03725431013296927 -0.07079828170884439 0.1994822294481979 
0.01957178170835109 0.03853631094206034 -0.04506415737475373 0.09189712368421445 -0.05233693850242695 0.0260762867453703 -0.05902581873035495 
-0.09387152292446756 0.05795970472344474 0.02850565604051736 -0.02517675852610556 -0.002400792084506978 0.04054897453411594 -0.03827878300887401 
-0.006167217577243825 -0.08241505484907606 0.06003620580216713 -0.07544224857637068 -0.05251099586812306 -0.008782174063527956 0.1499726498740127 
-0.02670128352210815 -0.002076729792989254 -0.08674393710777283 0.04076698186382079 -0.06736254286780781 -0.02057912966509256 -0.01891810713398742 
0.03894066654478145 -0.009530682534831178 0.0493510066566635 0.1801472003587598 -0.03535716417676775 -0.03484567568193066 -0.175373418108399 
0.03631285424153746 -0.009802161339414424 0.04444885919490042 -0.1984036125265009 -0.1248966137636753 -0.006703557773501055 0.1351838307886535 
-0.06900535435548091 0.03897462834955848 -0.184948434531612 -0.06531823521690662 -0.02337964192444991 0.02878531133530721 0.005825027335565615 
-0.06522038370547605 0.05961725021809806 0.1400415658058373 -0.06729197253209569 -0.08626470535940878 -0.06417468609358518 -0.1110317005388584 
-0.05245695577945737 0.004523814560163789 0.04794500588884298 -0.1878578271862781 0.06754429826951677 -0.08600695255783077 0.02900923669251866 
-0.032525307083836 -0.04547654227989243 0.01750657213921965 -0.06763457138370343 -0.03134687946351732 -0.02898042557744501 0.1293502998675131 
-0.05063740844976732 -0.1323306518147964 0.03851146462155333 0.01177433211772691 -0.06368788748071848 -0.05740855374736285 0.1929692972199469 
0.08659880891821158 0.08978338204397794 -0.1199694716016839 0.0870101017011346 -0.02657982570844118 -0.006895317281872569 -0.3160509222667437 
-0.07271586734346766 0.03547107972467976 0.05235582447797869 -0.04225385940387639 0.009167476617856767 -0.001043065388687818 0.07090687292535627 
-0.01912876477302762 -0.05044816134584614 0.04849394781418773 -0.0652199071373907 -0.03771479110020742 0.01464403283078684 0.1826337223451097 
-0.02035724140398602 -0.00384177953953026 -0.01474158436708896 -0.01782162116069864 -0.05403040809745024 -0.02676012776624822 -0.01248262975430237 
0.02612104358126318 -0.01868949620314427 0.04588464253023061 0.03961627414150251 -0.01379852762104008 -0.0124289736121288 -0.2002165420629894 
0.02223364389151981 -0.05688074570763101 0.002709887558119595 -0.1481918670501018 -0.07877498205110864 -0.01398486477719594 0.10590280455045 
-0.07307965988976259 0.07857011709924808 -0.02152566023404876 -0.0212819113152192 0.002721830156021868 0.03052087282768072 -0.08000092370436825 
-0.1679603243546872 0.1028504734759434 0.05383642729551765 -0.008589691529532827 -0.01167916129442336 -0.07373505434311554 -0.120882637896592 
-0.06866016873998065 -0.000946782238620891 -0.04329631456802876 -0.1704347298453085 -0.01721089287792099 -0.1037117836175388 0.110489420389532 
-0.05875915122050091 -0.0298036259704583 0.004268568534360955 -0.06674610299493949 -0.02145632419054914 -0.0203644580664708 0.05578316991355781 
0.06488591812245699 -0.1167004834174283 0.07264071124616335 -0.02756237532096889 -0.08028003618517707 -0.09029949590690081 0.08854791620471805 
-0.05467832421541231 0.08274376254074385 -0.149324349546531 0.06686862585186194 -0.008593425883437963 -0.01691949604475078 -0.1719509388149634 
0.06314998161561297 0.03762293284017768 -0.008548241771683646 -0.001274273445857696 0.0248516892947961 0.03391260035118611 -0.04466246199025536 
-0.02121763904605524 -0.03635166307163352 0.02918058837227178 0.0191844897152506 -0.02355820410798926 -0.02540073945235672 0.06405107151721659 
-0.02938907467029989 -0.007425000439191603 0.02823517043859279 -0.06867497132066042 -0.02291954296659741 -0.005544136868793779 0.0354415394219039 
0.01260524948944894 -0.04962221885469625 0.08996218885761446 -0.03916015961622051 -0.02596511605432004 -0.00984844412235718 -0.09652430546723349 
-0.06724813114247383 0.03564496704411779 -0.01057511575372326 0.001539491650958462 -0.04387702475246975 0.02791531626079177 -0.08551923842225902 
-0.07940691695849865 0.1004797881063376 -0.101269125361357 -0.07481876184111311 0.101317669484441 0.00115879110251602 0.1694440265345715 
-0.1469641394928986 -0.04456217444984904 0.1239532963865883 0.0006818701131915904 -0.04232968059423829 -0.09027522471539472 -0.1192421507293496 
-0.0458845540323448 0.05156477648984469 -0.07691465099449765 -0.07303700822989671 -0.007788517752585037 -0.09191636431914965 -0.1117663191234474 
-0.04722083387848502 -0.001041329577880345 -0.010909046429282 -0.06936473034850736 -0.0002233986142711742 -0.04923943744616809 0.01085677558401077 
0.056674704050772 -0.03346187678460055 -0.02517231606394497 -0.02921149504026067 -0.1082280075255833 -0.08900262617371255 0.1209713258710934 
0.01184682372551503 -0.005429547053056432 -0.1108996687675689 0.1454044307960225 0.04917871812133498 0.01447176306425154 -0.1927154168301211 
0.04591206329585118 -0.04711627664685031 0.003423707234816473 -0.02254901957881331 0.01613872715551633 0.009276191025101724 -0.0871223164897221 
-0.01342292633875058 -0.01065227970157135 0.000611364659891827 0.05715054336379854 -0.005232590807983512 -0.01340792372037162 -0.09050391681749523 
-0.02599443129438185 -0.008405722813484373 0.04532253451803082 -0.1186573105179067 -0.02181806261753014 -0.02026587972633906 0.1106677406133066 
-0.01998785602349732 0.03935338372914113 0.03638781363231651 -0.09090902886196192 -0.05529491280182731 -0.005855603961703093 -0.01750794797305295 
-0.11726278185256 0.02789908697484203 0.1027015652033933 -0.0331332367089707 -0.0004957750804248328 0.04036551097668076 -0.1144911657482165 
-0.04381300853853096 0.002234517707058709 -0.01747486652958649 0.144653674080576 0.1070616031716725 0.01342759545178094 0.0704404976014876 
-0.0591964903448861 -0.0434355266637477 0.06819286145867663 -0.1335643878437987 -0.01363630310437154 -0.08990814834797904 -0.1464959540084058 
-0.0423636706739895 0.09949467545060421 -0.08150442770170904 -0.05284354350663327 0.0173248453944197 -0.07814275322754757 -0.05105559947271553 
-0.01648641132028305 -0.02552267653835765 0.02257015376321808 -0.1206627932961738 0.02341572512772631 -0.04151636551604268 0.08023897682260564 
0.04036935404907808 0.06538185096577602 -0.07250629103740013 -0.01024738618177738 0.01790929923041453 -0.0635111291704695 -0.1039429848397558 
0.04746679754904195 -0.05410818569501132 0.05659647293920487 0.1473153553546657 -0.04450023930043115 0.00147801237752498 -0.1301760378983037 
-0.01522215391338022 -0.05911983661716628 -0.1115130658677529 -0.007396456122459817 -0.008895131130836592 0.03393657608614374 0.05010465871581343 
-0.0222548975697111 -0.02907279562171824 -0.04734052803506018 0.02936447440809612 0.01960746524955551 -0.01605706958908783 -0.1039306622422081 
-0.002418843251925066 -0.008950972540363549 0.02964518897074865 -0.1182293044544883 -0.0123945368156944 -0.01376712019314059 0.06591156554206636 
0.0141830127198771 0.06380727245373297 -0.01307489425002262 -0.1295294847469848 -0.04493950849203458 -0.005427206469606444 -0.03866134225010059 
-0.06217112717759837 0.03634547655446122 0.185444259698413 0.1156365848318977 -0.005791375965356775 0.01260723035558619 -0.09347940975509075 
-0.06595595983269657 0.03496130315644187 -0.004211167209169788 0.04289056473599173 0.05404612382484906 0.02037885973758331 -0.1424139106856824 
-0.02850658924606536 -0.1082699510677898 0.03946459755151626 -0.07979107325761903 0.07572533214169039 -0.09697548014525535 -0.04673054936561778 
3.355890321636303e-05 0.1031443897262085 -0.07549494198313568 -0.06246718200012823 -0.005777968772088 -0.06462124304733076 -0.004390245980754011 
-0.01056130887608076 0.01680253411184001 0.04780970047953272 -0.0561311472442652 0.05366146700051602 -0.05465505983562205 -0.1472156121925754 
-0.02986627351796383 0.1075875982317168 0.04199866469287776 -0.1949579554735313 -0.02080777745000334 -0.009210675508783834 0.01128884750118707 
0.03694936790462441 -0.1476464397821428 0.1193103409168544 0.1081980468944596 -0.02783012444332125 0.0103562254685034 -0.0990326083963073 
-0.005186039859420654 -0.1093690210003109 -0.2022251129436328 0.04122938991885027 -0.01082010550115852 0.05791747190141538 0.03085239635985127 
-0.009611243297595164 -0.01607313430987573 -0.06329324411576462 0.01162213000218329 0.02435899299990599 -0.01692743794398887 -0.1057542055895878 
0.007712917878049161 -0.001664472455087076 0.008719185719699816 -0.07944404189589356 -0.003731654546890753 -0.01107612293049797 0.0302282241522123 
0.02550999853235541 0.05584220790905375 -0.03330848259865073 -0.1288807849942796 -0.03930126021419384 0.02115146191136126 -0.1040949486556898 
0.01380114437999288 0.09781266937963644 0.097658025350418 0.1351103488976916 -0.04505211988211644 -0.0239734412641086 -0.1276468845956198 
-0.08033588028482846 -0.04398725287726744 0.002029869792904786 -0.05999553551359337 0.0821384940929073 -0.01566460247957438 -0.09859370458878564 
0.06558465669941435 -0.2085235007175578 0.06893040218551039 -0.06726664950712316 0.02109685005596643 -0.07621773845748146 0.07929307739392649 
0.01399972746320073 0.1057611983793161 -0.08618007376857893 -0.05868539457411034 0.01539133561426972 -0.04277114519885263 -0.05771532313759178 
-0.003987009049133009 0.05507454056742013 0.03027832604182147 -0.004282137694571903 0.1078323274129064 -0.06629288592729715 -0.2427720218734844 
0.01564911991125277 -0.0430665121787027 0.1732870388474776 -0.00931337959811528 -0.1296554420164365 0.04396103421544353 0.1501812527781084 
-0.01569667759593551 -0.1171990375213534 0.03600032943786855 -0.220018675917306 0.008527307202504966 0.1295628355976212 -0.1483719582215657 
0.008215969604581163 -0.1670839698296212 -0.09655557464536073 0.04873147458150792 0.0266527412163132 0.0396154582761715 -0.06336876844005417 
-0.006273128540766193 -0.01306383940397684 -0.04550556165808724 0.01682187122441544 0.02800074294235955 -0.02401192002549049 -0.08501719712849765 
0.02993971126156043 -0.005320398075281711 -0.006225302602545548 -0.01611304389487288 -0.005161302599897937 -0.005323028345049519 0.03744502295571757 
-0.03224014129634024 0.08707112290185666 -0.1419804091701793 -0.05598950194083722 0.07448315438794539 0.03899941474315025 -0.1329931592879597 
0.01972212178990321 0.008348895957418428 0.07445650390091367 0.06506979275183075 -0.06283352534419104 -0.1033074302747558 0.09942822799541247 
-0.02956199443365084 -0.005566050557266985 0.1632006279951977 -0.1175697775014483 -0.004811556341565056 -0.0009654236458240201 -0.145505946766088 
0.036751941286987 -0.2188495195117582 -0.08410001432050639 -0.008400873980918893 0.03986831693604612 -0.07355606777517135 0.1668621474036119 
0.02387862574864385 0.05073097472021375 -0.06466333250340786 -0.05450175312164954 -0.01420270026202257 -0.03479007317627671 -0.05046834097412858 
0.01169143674376209 -0.03092775222714732 -0.2285131440791394 0.06575895129206065 -0.03103356151865267 0.02787668324654346 0.1694966987861573 
0.01340276920632519 -0.04762636948923155 -0.1747373052023857 0.02309641918408466 0.06055668354446399 0.05011590867956751 0.1286384743701632 
-0.005357051713474587 0.01651436603671335 0.005871479872670098 0.03162446415426004 -0.01210071135591238 0.04961090425321509 -0.1130022741909482 
-0.02610016865903048 -0.05981721153698073 0.1632086225183968 -0.0506219873872342 -0.001750553702127642 0.04486888509110436 -0.167648095623006 
0.06302795841294632 -0.1991068113162883 0.0707305477476758 -0.1028073817108282 0.1158577459447073 0.02880719727627854 -0.291722153058758 
-0.01830405192968675 -0.1484434054747634 -0.05860629956130252 -0.06665021167429899 0.06843058513216481 0.09462884494862082 -0.1839693603317422 
0.03365435110299603 0.05532047090629906 -0.03939582149633292 -0.04905644463798037 0.01332683453331579 -0.113123778118897 -0.09575608271265648 
0.07253336523348154 0.07490575549467272 -0.1699634997095653 -0.09732906047441989 -0.01278021481373462 -0.04098324085239002 0.01455786838842963 
0.1235782607969561 -0.06758737057206966 -0.09973139919492116 -0.07029104141118808 -0.1086798395991424 0.005710086357536858 -0.02748553077299289 
0.02260395976141934 -0.07007111438689745 0.002233314084538527 0.1201814723681819 -0.1284032403381659 -0.02405877826619221 0.2491190723682641 
0.004162668068722132 0.1812609999829809 -0.01142249236576898 -0.08546726471373162 -0.06092303070584717 -0.008884594172315359 -0.1209664954702108 
0.03501677091608971 -0.04432068397430465 -0.118814947886594 0.05265007690396844 -0.01675388174389444 0.02925513180837749 -0.05019892897651918 
0.01225256567800736 -0.04167084758584828 -0.1247146743366832 -0.004924837177672337 0.03682055736004568 0.04551556120701818 0.06324715653662022 
-0.03005064288135373 0.01381202497616975 0.02530418342647628 -0.02159680038212138 -0.008332019622957768 0.05998920190569933 0.00579904810900554 
-0.03562880694282514 0.04012499803954721 0.07044135642752108 -0.0601743712669604 -0.03173184321278299 0.05914774531895183 -0.2168963203285988 
-0.04532982813682386 -0.08455326611796074 0.04386041356163632 0.0125581326793824 0.01869417131186223 -0.001553021669214886 0.2884415583245128 
0.07759660055820439 -0.001668933852003002 0.02023427147715352 -0.0638231422645391 0.04611803460921341 0.0006801704801564442 -0.1810030207494092 
0.0955435775492149 -0.003290797981765502 -0.1527048212320781 -0.001214158539674054 -0.02442536523276913 -0.07521995536987311 -0.2225441478520642 
0.111165905186599 0.09196623970293367 -0.1842462483637276 -0.1789464157858396 -0.079670222739086 -0.05368375442846968 -0.05256337475695217 
0.07392673450029844 -0.02191534253786999 -0.1476336566407663 -0.1083522454039448 -0.1258911993106132 0.006975660871360381 0.1677125865879666 
-0.0260864782770172 0.01975416233643116 -0.01689626220079717 -0.06848965056075486 -0.2113796905198181 -0.01598844982041136 0.1399851555691593 
-0.05123481123149234 0.09924184470549888 0.138200073705331 0.1008774995517696 -0.01612468002311108 -0.09507590929432358 0.1748056898592159 
-0.01255040538916606 -0.04506439716499955 -0.001462284451988563 0.1073447721331618 0.02798543609405272 0.01990182337304978 -0.1577482982435925 
0.03445516812475487 -0.03117369983263015 -0.0908057280333191 0.01882094375783767 0.02496088141446803 0.03900817031296822 0.06626020827650399 
-0.04262722069453101 -0.02468051403864973 0.04710140634545952 -0.03487990936025809 -0.00882779613696727 0.04230422731579795 -0.0995109489210325 
0.00164538820401101 0.03939398376638348 0.08061802661698711 -0.1262033742622287 0.001131737825270538 0.04933388067882116 -0.01916256242875352 
0.003150344395893111 -0.05020151353348485 0.04038374430825176 -0.0008470133019977962 -0.09932053376746144 0.03147327466951542 0.3591183669434559 
-0.04243042943412809 0.1072532641231196 -0.05448131830912436 0.00179705104445319 0.05739263867245482 -0.02987380568080939 -0.1676597455442805 
0.134422103893368 0.0156705189827762 -0.1079383484231174 -0.02670505578100449 -0.02019423320443928 -0.08529758132799588 -0.3196933583064157 
0.06765424095370447 -0.01496925379414356 -0.1070666389247599 -0.1130448511463816 -0.07555294578009897 -0.0430542008257419 -0.1653659749266977 
0.05342158993047059 0.07310369289201513 -0.1005841996455577 -0.03547069017737108 -0.2679501657792826 0.0289880939947017 0.340982850104379 
-0.05344003153261461 0.007408687765244725 -0.0506951447382172 -0.06003246562491613 -0.1896061880380208 -0.003905325011512807 0.16644434471532 
-0.07575386876285521 0.02033896149926254 0.1285941399954676 -0.06186940098861285 0.01724223782226754 -0.07321956193612561 0.06509939530445487 
-0.004019219469605927 -0.03169180350585855 0.002326806244060448 0.003099870302643245 -0.01694677619011192 0.01983624223255349 0.06055439389824571 
0.02802869304973702 -0.03194654401706205 -0.004782561181692257 0.04513752319670382 -0.003228097869899714 0.03174007233921 -0.08059316037559482 
-0.05015375619299001 0.0103320307381441 0.1200750070030954 -0.05060551387994841 -0.0375981952287438 0.01951404399310944 -0.09555088063776543 
0.01724801865949391 0.01370209095174951 0.01217539529431682 -0.1288367929862326 -0.02014233083159815 0.03415669393517412 -0.0194460529325422 
0.02177243120741411 -0.1294461058856458 -0.0246076220555581 -0.04569021793040937 0.05126210913978764 -0.08086059441903903 0.1248053004503228 
-0.03718226114197466 0.04576363652002566 -0.02454694027840938 0.006477828993833079 -0.005254958374532501 0.02856742992484644 -0.07122867553547681 
0.1313983554654883 0.0237154105950021 -0.03688439129744284 0.001045076812265992 0.01127782172043482 -0.05501531522716734 -0.3118287734618055 
0.04739672830059073 0.02206261195475825 0.003402545875620266 -0.03354885327076691 -0.116591467469162 -0.06487547629804413 -0.02241476637212327 
-0.05042304048718077 0.02330918533265263 -0.09527993872224869 -0.07595763726017511 -0.3157250451914831 0.0761290687410861 0.1728470173915474 
0.04521384331137294 0.06730166688025993 -0.2130550453970624 -0.04141460042966226 -0.2012973455828913 0.04277048189897072 0.1345543314214174 
-0.08519932549206846 -0.08125493778871133 0.1701493389681212 -0.2175323225215387 0.1236082020361647 -0.1017107590106052 0.1568895214896434 
-0.0449829756197872 -0.003470389056959734 0.1307361619635981 0.06663156993727599 0.02821617537040613 -0.01387295422770956 -0.04181074321571193 
0.003755621643422836 -0.02011687289557191 0.0337763238505257 -0.03951392175351463 -0.01617457065088698 0.03058829084794212 0.150883529133352 
-0.07331010006556239 9.16258247522771e-05 0.08441671160387636 -0.04510322425190253 -0.07694864953049102 0.0145215532483981 -0.05104483999955089 
-0.01474642334982591 0.0003993952912811388 -0.1156323702401024 0.02486804710684265 -0.01277586497271332 -0.01904111236461145 0.04179525251759365 
-0.009041410509713348 -0.09699047780534578 -0.02990383308921993 -0.01887026444829995 0.05862422738792983 -0.0008730487098387654 0.06962653452690969 
0.07142500570972082 -0.03038445788393547 0.01278127838143689 -0.1403865830971371 0.04873587645115155 -0.04766426512686889 -0.175325036238707 
0.05563211716752049 0.01307909728962384 -0.008602801045532916 0.1016235554747331 0.008304988405146848 -0.06642132070139597 -0.08236909426445196 
-0.0454837950252608 -0.006821040716552493 0.122956055009749 -0.08679837992075801 -0.133974073940239 -0.06286111794549781 0.01680666069393649 
0.008206494636990646 0.1124659684967316 -0.1657206522449407 -0.139991910212456 -0.3514829600304137 0.1542130163580384 0.2428774539238097 
0.1088171561550113 -0.05016883508844667 -0.2152468817217551 -0.06801686605772292 -0.1109819693869697 -0.00615479449512047 -0.02724902693114442 
0.003312893580349164 -0.04919295796118409 0.06919739420393141 -0.08335606712532902 -0.02572138669810016 -0.0897202248731032 0.2002009013700738 
-0.02973141610182278 0.02360216460100198 0.08688954694428179 0.03664570393587308 -0.00307224267951128 -0.02163481356060097 0.05114273702391951 
0.0007121248740821674 -0.03819766512132337 0.03203763123590554 -0.07870276108446551 -0.01404480748758209 0.03197534444354973 0.1621193872918496 
-0.09498601589225034 -0.01263913663217494 0.05441559571276439 -0.02309504718755749 -0.07406184376949675 -0.009853179976567723 -0.05249561164496033 
0.08531259031532964 -0.03164873120403656 -0.0395684521397041 0.08191234237720506 -0.009929491173148768 -0.04282376233338046 0.1790566062786802 
-0.08884373589653885 -0.06141406832380339 -0.06337023944263193 -0.02086207739767749 0.06479425727729858 0.01026952431669926 -0.07457904841470957 
-0.04310765031906736 -0.04009581817479371 -0.06989750896167249 0.01693135121273286 0.03176736728600818 -0.05039652702568326 -0.05941841557206458 
-0.02533376538015216 -0.03964411992298759 0.03868059915272794 0.03382726426117086 0.01814003697246299 -0.04471828138205245 -0.04047735827892086 
-0.09935884866781752 -0.02681189293935193 0.04305427235719779 -0.04479716430194273 -0.1497968731145871 -0.04164331823075217 0.1267717318092394 
0.05685258755569632 0.09482639596953334 0.02466336481007802 -0.1273236122835671 -0.3691175004065663 0.1494493063519913 0.2061897430741707 
0.1038968077600454 -0.0606696245665776 -0.2216097534289168 0.01018125711528204 -0.05733969651546783 -0.01307191122724829 -0.1123208009549886 
0.103031478403403 -0.06403428118632055 0.095574571983203 -0.1301590459508029 -0.00142327728559674 -0.1001525011443559 -0.03076628708117046 
-0.01234334975859048 0.01941154300986641 0.08060395555088297 -0.13273295069596 -0.006939228191148866 0.0002485844822878717 0.1262538821958807 
-0.01043218416739545 -0.04765674531098636 0.002889053542781629 -0.134649277201053 -0.01385471608807978 0.02101609666739717 0.2658827701609477 
-0.1024043196275766 -0.04895169762360587 0.04840777228262089 -0.05061087310834023 -0.0766783377448159 -0.006713573411236664 0.1668543816422562 
0.08018754385040605 0.06339793823559177 0.05793129413503649 0.06742171199261303 -0.06790483468100771 -0.02730175714764624 -0.02995079241683506 
-0.06706426012892257 -0.1187264720886456 -0.06771851797208522 0.141707410427568 0.0630207510448452 -0.05140912579017843 0.007289008733675112 
-0.08376302676891476 -0.0004025189685743189 -0.09989748719631315 0.1328385822605993 0.008007643809626663 -0.01707061827053499 -0.1324467260243329 
-0.05142217719639358 -0.07361324168008018 0.06520016071008568 0.1060155510419371 0.02892662082459056 -0.02128986375349221 0.07834611239325302 
-0.08396683424193865 -0.008353302590942377 0.1246966003474263 -0.135649016838266 -0.2216861329903067 -0.03250466009048192 0.1258351283405822 
-0.005914387999451949 0.02397147680969024 -0.1337770345211904 -0.1472943640789335 -0.2871489723182445 0.1298497961114591 0.07911028018544207 
0.1623901502180704 -0.1147464247104264 -0.05102105941797467 -0.05838818999606221 -0.0582628393805187 -0.06243671455695694 -0.06870466436604326 
0.1162774216439834 -0.08511388333184326 0.1284044072347679 -0.03154286539729423 0.05856517985204773 -0.08826717550187842 -0.1346321142365392 
-0.01348997421107099 0.0102030163392526 0.07353458442019535 -0.1161033869906322 -0.005178589653237348 0.0078738640912435 0.06003784951550852 
-0.04126460957751921 -0.08488075618324342 -0.01858423340918122 -0.1091901208292391 -0.0160105313572159 0.005365562858493255 0.3115398096288386 
-0.0582586684347764 -0.05361938437964336 0.08338872116152179 0.003823176201100724 -0.05631095549426416 -0.03123225767511013 0.2618924682444862 
-0.0231975501296303 0.0459477359252454 0.07946630463893853 -0.008629744279415069 -0.04278362401077859 -0.01261343219899503 0.02614476951436607 
-0.04118829494485059 -0.06231976933694523 0.03182342871363231 0.06134095060025894 -0.01886847892352431 0.001588987466157241 -0.009611491908752818 
-0.04052410596352785 -0.01936384427009466 -0.1383802738556156 0.2067995322997407 -0.02979044433110204 -0.04019928340025002 -0.2332044679955659 
-0.002677770770074658 -0.07885548968809303 0.0126765249216778 0.1182975845123281 -0.01575819581562185 -0.03760885079593484 0.08915516807303488 
-0.07357269654024337 -0.07573098779355217 0.08821871456561425 -0.2108125357491333 -0.2307645371862172 0.01909846926438324 -0.05067698880738545 
0.04586929769969688 -0.009504434870905357 -0.1477135275073988 -0.136873382570289 -0.2763161226194265 0.0533910656204337 0.1102035427662003 
0.1114246541082945 -0.0829454875090393 0.09330610751808011 -0.1338954134314975 -0.003558036337440486 -0.06443103221682907 -0.008507861197571387 
-0.0151601915509846 -0.02238019255551324 0.03666659945297419 -0.07352958248517845 0.09178663119603889 -0.06450584421885948 -0.1695166054172983 
-0.00340191741336875 -0.01843518226972996 0.06374358956805645 -0.08964500313085678 0.009341330029272807 -0.01930779702560387 0.03453459688233058 
-0.0741725877092944 -0.1287963550821357 0.001349272327482232 -0.02782388413846186 -0.02577987774371872 -0.01582554199842829 0.1236795348975071 
-0.1048987225164277 -0.0188614373746937 0.1759663561710115 0.05430615893388002 -0.05368908012799924 -0.03802395249272119 0.2305794434013067 
0.02827851697282696 0.03197981515266739 0.1095556561273871 -0.2901778892868546 -0.01514068982898431 0.03703248727664298 0.1163433868600341 
-0.05060540958054423 -0.1524273317091873 0.01641026607198279 0.08476995924645205 -0.01820577932240094 -0.0104662854337499 0.02051183588445707 
-0.01760174244967337 0.02407063394279019 -0.09295309426968773 0.1862974949931408 -0.09019923746622556 -0.04343061615985797 -0.08449029481075845 
0.02283670933922671 -0.04600078003765679 5.94123455736837e-05 0.0406256355012229 -0.01529183497499584 -0.009514228203329506 -0.06160337075539721 
-0.02568234908045001 -0.07367999921775231 -0.04809553205761636 -0.1439838956241848 -0.2361737945214751 0.002495268477632992 0.09973449640722551 
-0.01780843126849168 -0.04566855566990945 -0.08351316844133311 -0.09659463504527335 -0.1815363439351285 0.01295924581355314 0.07146443375254011 
0.06041521635168162 -0.005939980458109343 0.1061798786589509 -0.1872020462122089 -0.01075871470009079 -0.02972215817611068 0.1346824973592429 
-0.06160992863347976 -0.02396857833956718 0.04059584460234458 -0.2083804713789246 0.08056048583652216 -0.06846049732174592 -0.127968603027503 
-0.02778749474496354 -0.05810045750937955 0.05135854735336351 0.03587857641836382 -0.01711668559909887 -0.02471615043019031 0.04110869824407624 
-0.05720935353994315 -0.113651000926908 0.0322847324610921 -0.05609157407158455 -0.01929750046190745 -0.04491111626992363 0.0921335364885067 
-0.09619011009423692 0.01615773827508227 0.1499204067838848 -0.02508679920443682 -0.05767149347289922 -0.02329191545749438 0.2418468609571815 
-0.04234008020135949 0.03400905232827091 0.08047362741109644 -0.3008100332844797 -0.02076085946922758 0.0707370341691041 0.06432447023735102 
-0.02433704704694873 -0.1174727163163365 0.04600815165050338 0.02938319886072077 -0.0387076612762207 -0.04228166949104575 0.1659627051056429 
-0.01119987023273097 0.01259090451257708 -0.02706773384184303 0.1230386087841675 -0.07029201450582986 -0.04127149147622725 -0.03369377993236126 
0.02470843719303507 -0.008209765389358175 0.006101685402611307 0.02145592796528137 0.003533413852490848 -0.01974405736563428 -0.09312392563176988 
0.06913315122449611 -0.06292705674355027 0.03551491201077919 -0.08069151258172982 -0.2000749200094783 -0.01873051498407883 0.1792958708269546 
-0.02181146504386663 1.635516020094299e-05 -0.1670062439353392 -0.2136188474604722 -0.09198243716676724 0.04043658247685433 -0.02134334349860612 
-0.002672132037011447 -0.04386343314817501 0.08033425228217268 -0.1551538355449547 -0.07743906934396237 -0.04579618139295071 0.1786108727263194 
-0.07273990258100431 0.03853336134108191 0.06210281222205638 -0.1826557341863806 0.05540040782696223 -0.1063987711191641 -0.0566449575101905 
-0.07068878133890825 -0.07861648568481128 0.02542900452536179 -0.001471439325207658 -0.008556401812235092 -0.03862676764375077 0.1236392546958558 
-0.09066862094093042 -0.05695497944210916 -0.03697355686134127 0.02008060967460991 -0.07683367112892463 -0.03889976134429229 0.084038915714299 
0.02080725658710206 0.1064611216837166 0.07679635565283655 -0.09788010584326014 -0.03459140189257333 -0.02166604205946752 0.03926746096232567 
-0.04863637182577043 -0.03971281175955212 0.07407470758154441 -0.2715527785334853 0.02811018522968195 0.04178893795694959 0.1652548701310769 
-0.04661840620821306 -0.08958584973910017 0.02507741538925412 0.03918823201741664 -0.03982827689774349 -0.01096776935872049 0.1583049558525002 
-0.006264813338169527 0.008526261665946626 0.004645646520442432 0.01872192577480313 -0.05675489281231027 -0.04872601581769283 0.04289558520468963 
0.009130115976254422 0.004204654535660523 0.03055492120058596 -0.1173526841142259 -0.005565063803389969 -0.02294369345960111 -0.1020788279996648 
0.1350478723752677 -0.08732389184371682 -0.02882773316659316 -0.08167685723323921 -0.1381786126095113 -0.0128237211110688 0.1209587001999824 
0.04674809912631236 0.05133388193584588 -0.06837756820144635 -0.1737975974820102 -0.06097782310921809 0.0247128058299308 -0.1523480706747844 
-0.1423318425103605 0.07356304091958428 -0.04841926490620268 -0.06445479443627207 0.001098682180735045 -0.05165124265752138 -0.02220639053075463 
-0.1063664477271723 -0.02321840377343998 -0.0006206770404521913 -0.177461046100139 -0.02941644387280079 -0.1165489594521561 0.09694022010767034 
-0.06412121526233285 -0.04085490259563415 0.02785377412516677 0.01933980936906817 0.003590916653381151 -0.04475451103918065 0.02556044991130585 
0.06566146523964204 -0.05957804755154233 -0.02661039074213377 0.03891461755913895 -0.1006000396283389 -0.05966244851032128 0.02396496794836973 
-0.08986370600655118 0.1611332464527712 -0.02033808364861557 -0.1814269613217483 -0.01931558363857788 -0.01410981531911067 0.1129742652617899 
0.05827481085887507 -0.0248257713215694 0.05512526058345933 -0.1683351271962872 0.02957163308938514 0.05717664967917289 0.07721494027968787 
-0.03460198883140832 -0.0805048190981195 -0.008802851568783805 0.08197741254636064 -0.0203241775567164 -0.04054724809486668 0.00223133150366053 
-0.01454013263823675 -0.009652736293900049 0.03193328199591065 -0.01569872610971747 -0.02716213632679237 -0.03066791449142311 0.1198259566218776 
-0.05924240835053279 0.01672507389932463 0.08723764877052677 -0.1200579229024899 -0.0295994337075012 -0.01129144987850759 -0.04223841295936417 
0.1022228036347237 0.001698361691676057 -0.08795778631655146 -0.02333088894201564 -0.08224605792636341 -0.01670482524654468 -0.02322114505661362 
0.06886084394319364 0.1035767352075013 -0.08737869097198435 -0.2664584213240929 0.04041790088191054 -0.01009344765292079 0.01306633684938928 
-0.1572812090413125 -0.05839001844818121 -0.04438371981255806 -0.01020320918909522 -0.007932765663643218 -0.05460829264995771 -0.1166887823398704 
-0.0487745030703945 0.003614441052799718 0.05465651207738787 -0.1855694429319597 -0.01620447571724441 -0.1052637837899948 -0.0175184135619092 
0.001909680339186099 0.03523222586078294 0.01481564870812112 -0.01614647693922452 0.00468686866684994 -0.08254799371052828 -0.02008788371940137 
0.06758965845193797 0.0008766308106368166 -0.123736428848968 0.04374861433629854 -0.09986588238483023 -0.02506683053433259 0.01922140724109358 
0.02101981203910447 0.1167252932750348 -0.07077392446372113 -0.1680084023550329 0.02736857337367803 -0.006955785442656719 0.08324265157614613 
0.02211196859643726 -0.06841261159357373 0.0688923805491605 0.008064347905119019 -0.002743856962054722 0.00295478625802538 -0.1371454568665749 
-0.02053785358957873 -0.03012670436274972 -0.0304985033744501 0.08691504124090152 0.008240047287275003 -0.04225571659614854 -0.07001737945021784 
-0.00952333114949905 -0.02796987430467466 0.028203084789999 -0.0714190000644636 -0.02004552142559255 -0.01671739917046842 0.1589147157651787 
-0.09122292732482815 0.09891832138410794 0.04045810975969918 -0.108113688669942 -0.07181727242730521 -0.008570305031665752 -0.02728609319313367 
0.007028758899440738 -0.03847419070141791 0.01102544273281937 -0.06498265186347302 -0.0106224602320015 0.02575073086960877 -0.03661475024598738 
0.09425783400050286 0.02776520107985754 -0.01846357312034341 -0.134674202958669 0.08564538045077541 -0.002362883692288833 -0.02844393854541533 
-0.1159395011518414 0.005182945666924564 -0.07042376805415645 -0.05898428940727587 0.01085334331985793 -0.09175028631149194 -0.1467963161309181 
-0.003057666360842835 0.02078044728256156 0.008166147089825996 -0.1917020628506078 0.03414370838504208 -0.0593366975853761 -0.09242618048052538 
0.02323741553872101 0.05995123934801982 0.02951283290249111 -0.1173756543672683 0.003360432015829985 -0.08142439566691831 0.06213605028163416 
0.09504189524887512 0.0263626145469698 -0.2015119835793482 -0.02654243689703619 0.005373734666721651 -0.008441410233377198 -0.06764940847577743 
-0.001308784359721048 0.04964433438034844 -0.02247934902899181 0.1222859513223578 -0.02379139780587989 0.003069987696215238 -0.1353177246046446 
-0.03464154100624043 -0.03810189386829047 0.02993374069270689 -0.02656931842967135 0.04279181248127055 -0.00810559234587983 0.05040895196201028 
-0.0007694693158897677 -0.03537196060723222 -0.05945641511911167 0.08192834203228913 0.01174808698365462 -0.03456974500687641 -0.007922555171892262 
0.007454269418982172 -0.03379586264334476 0.009386106533874431 -0.09904300954163361 -0.02063025478431442 -0.01337583992403679 0.07002952307201002 
-0.0307531740031694 0.1319492039481011 0.006090870389363147 -0.07309343000009247 -0.03231669854841963 0.02212349192906695 0.02723708101602415 
-0.06167155594735554 -0.03233274649281166 0.09472035573367771 0.002892437399325596 0.02849154321727017 0.06303634388019157 -0.06217052258194949 
0.03545973286820385 -0.007827409484521807 -0.09983553850924871 -0.04934216135174834 0.08364905875103117 -0.02167065289554928 -0.17753538751198 
-0.01391183627469027 0.00723868968521412 -0.0116825289724593 -0.1117828686565563 0.09946659126904649 -0.09804423448771174 -0.2480097404527991 
0.03394394551353385 0.01177196036052001 -0.03300582752099979 -0.1181021083202626 0.007166702479573701 -0.05928027668665759 0.03977911054545915 
0.03696326330206275 0.1460351035565154 0.05510232063280192 -0.130620788351281 0.001459266245368792 -0.1095426804425265 -0.2517272412215667 
0.06826869697833413 -0.08898513204813739 -0.04708191018524691 0.0297365436147797 -0.002831909560920348 0.01468907998043446 0.03925264318252049 
-0.02399472811838665 -0.01319022612284739 -0.02580728694941465 0.0838710209561736 0.008932237111731524 0.01614698985170955 -0.004277703976200599 
-0.06006275095461541 -0.04965442810573283 -0.07051876288805538 0.05550645410851028 0.02494437866613212 0.01214900192912449 0.1133712676489678 
0.03249664293309559 -0.03021765248823315 -0.05425358240221286 -0.06547466510491004 0.02548094675146827 -0.02296736138572412 0.003525716003765122 
0.02880833005445118 -0.0302969895910399 0.002898589505961418 -0.06730866332058838 0.01543113902891036 -0.015483768104662 -0.08130511980047618 
0.01886494788868564 0.1221656653403722 0.04343736192251832 -0.02285619533849501 -0.04976692395633845 0.05864140631249209 -0.07659716085350329 
-0.0123892869108195 0.06385999222498964 -0.04216521454718822 0.04607031457941885 0.04165366745447243 0.02052855399044012 -0.1180505433579329 
0.01644146767223337 -0.09853849544855997 -0.05700641965014034 -0.06646034863557279 0.09402079841915918 -0.01801281524584614 -0.05250134864635819 
0.06739471049050265 -0.1135206345434912 0.003235374426400189 -0.03900473170018207 0.0378879138751327 -0.08447830232740827 -0.07641078151260702 
0.06137542459365115 0.09249236275001393 -0.07200297617155409 -0.09296514936441538 0.007216575914687396 -0.06026031258129421 -0.07455750391867072 
-0.01333623079068529 0.1616208323680138 0.03655426516260762 -0.1190854079197285 0.06545624966729985 -0.1022464279530886 -0.188948801634607 
0.02604955041456691 -0.1804645397854239 0.1175779412756737 0.1024571212912861 -0.0956994317548556 0.08894416572088075 0.08026772730078634 
0.0007312511691062527 -0.06337695930138479 -0.04637088196527327 -0.1582018908116077 0.0750186742229817 0.1049282539509442 -0.05432788562693688 
-0.08451180930666323 -0.0775712330827794 -0.04315761336539647 0.01789396120680628 0.02779116775080738 -0.02012672691268376 0.164866435808624 
0.03253304322928036 -0.04113867529786209 -0.02185373843408716 -0.02108862749215021 0.02307088356193645 -0.01976372695390726 0.05062826293646839 
0.04626421518105379 -0.02756352333562189 -0.01887377940594327 -0.01569978514734982 0.02057903469720532 -0.004489259864024831 -0.1442253947885701 
0.04849717827241129 0.1015951219076335 -0.02223907094799581 0.02748799833465488 0.02447564787585833 0.06724451811776784 -0.1459109204018714 
-0.01167890568723347 0.04601900707940872 -0.07750363446992714 0.07209150281437324 -0.01186621174087631 -0.03816733103854044 -0.050884418178732 
0.03995008838700366 -0.04646340978459012 0.003842433292523606 -0.06568688429833514 0.02359021077056214 0.04415147166578135 -0.1017541128860755 
0.02486069417608755 -0.1171434197728152 -0.1108008185108462 0.03297564413913179 0.01533977973815555 -0.1063384585988919 0.1569504942080512 
0.07319490694681298 0.04456882900642781 -0.06208776051520515 -0.05572927979380056 -0.03306570847829878 -0.0550067635861188 -0.1042746759338747 
-0.02116906794409603 -0.0792136277597871 -0.1786410768693136 0.1197501005099408 -0.1144245405423349 0.00168980413859144 0.1309770599334543 
0.08997222918084483 -0.01633494331516493 -0.06947362509376512 -0.0132231741443757 0.007395418078038309 0.08381947631457003 -0.1205581528758866 
0.006181896273414254 0.06266821181941475 -0.01533261242382332 0.01045399571653172 -0.053454814537998 0.02614006196480338 -0.2525516156465666 
-0.02600688052321089 0.04126918563178809 0.0764821840891927 0.04107554013446778 -0.05017551954515221 0.006960997921913442 -0.2644605506837642 
0.04429710010886907 -0.08130448997451876 0.03840388791450111 -0.06755956655709174 0.0143900028359692 0.1211665019852353 -0.3071012815001465 
-0.04038849617889156 -0.169067564416385 0.05586388966708779 -0.17226472179529 0.1298300193172686 -0.01017751051760838 -0.2033356248743025 
0.06294860888462778 0.1054896551663727 -0.07052459749697795 0.07574578462902859 0.02542009023456204 -0.07683327166244511 -0.08060642978749832 
0.124937353283146 0.02244345076962332 -0.1157825098715082 -0.03256233101863437 -0.03399678007692478 -0.04951447113999583 -0.02612081887071601 
0.165544932627105 0.1045378556942136 -0.1365720353609414 0.02409505384293562 -0.09280296267265314 0.0128984856735434 -0.2972438772608116 
0.02645165490597592 -0.006596939576400097 0.1170561323148539 -0.01887206077773675 -0.1197733604774344 -0.03847733946404636 0.2569646843897105 
0.01512778878250968 0.1291741116750349 -0.1247717840451006 -0.01715857339118245 0.04305250921739458 -0.00357987285074556 -0.03184253138995299 
-0.01517594668287092 -0.1044610181024721 -0.08533206605943865 0.07738727250770887 -0.1004115749148369 0.02964876782565609 -0.052158215428184 
0.1054316761088995 0.02308703608858988 -0.0276389304024867 -0.02608232270322975 -0.0279861642424096 0.09434647293323957 -0.2109907434906883 
-0.02349835014888192 0.05139524750533864 -0.03590633690863471 -0.04788756731404818 -0.04896513570939623 0.05216521902359921 -0.01407769424795806 
0.03753151067334218 0.005757230160212233 0.02508412385756301 0.06501965278072441 -0.09016965533464133 0.04654787979697612 -0.3268731894746471 
-0.05658133145700053 -0.03403791147752454 0.0157583012945739 0.008329875632406104 0.02058554669296487 0.03111935702945783 0.1343234827261974 
-0.03037067065545782 0.03803002731743621 0.1094199311580714 -0.1007731724400183 0.1070904115655572 -0.03144960211269054 -0.05366506450343732 
0.1772658427925902 0.03887121686705556 -0.191659019039752 0.02655007962473094 -0.01379534016094703 -0.05271301143787198 -0.2069446398551149 
0.1685917203367576 -0.002122907521206315 -0.1646127328051226 -0.06477724976524765 -0.1033875524502329 -0.07884478903560445 -0.04369060851916437 
0.1343610760907075 0.1220390677095102 -0.1141782029658397 -0.05459025771842427 -0.08413671914267913 0.01206926241355889 -0.1833768596507782 
0.002166268665697813 -0.001857018801845339 0.07209570450615591 -0.05659338342919943 -0.1626476348549876 0.0333116669094922 0.1752610262190248 
-0.1400483633254632 0.01684242792154586 0.05879686323203383 0.09979358820747722 0.08269080204200099 -0.0796730697258584 0.2091535384772854 
-0.03839165268012186 -0.1026942586073083 -0.01730881376350311 0.09744330650582961 -0.03174208265714988 0.05311246268918225 -0.1957942176698638 
0.08289258536127554 -0.00957956552515161 0.009667972750524258 0.05399746283186677 -0.02710908361678127 0.08454009449242307 -0.06816776266563775 
-0.02809566034029496 0.01677920635489369 -0.02758365037630497 -0.1045519972431621 -0.009310615267109306 0.04911848849330536 0.06214902655042458 
0.06459626624800519 0.02263515110244536 0.08859960715166935 -0.005672049969682112 -0.05076217877542114 0.03908798540521974 -0.1817104865239063 
-0.02278658858548839 -0.1619256900493055 0.06782275364456097 0.02689757082002192 0.03340430173940575 0.04519930412995649 -0.06572915301509157 
-0.0844325765920866 0.08991474370817075 0.0352833343877676 -0.1330898151692964 0.0711050201758138 -0.0170195827637254 0.04622048670328509 
0.1795496093164407 0.03499601723597767 -0.1461596010680263 -0.006797675779233776 -0.009878723564722929 -0.1058486921747706 -0.2371010320837224 
0.1584538870296087 -0.08335651784844765 -0.1562593967186382 -0.08905202018836232 -0.08384862068404242 -0.06552455407593588 -0.1125582792878194 
0.07453688523334462 0.1722698355786056 -0.02295433492577518 0.03072990727993635 -0.2251682403074742 0.02204758084427156 0.06667898448663298 
-0.01208616974277566 -0.1000150436796836 -0.02296213399627456 0.0719703032444776 -0.1005003913991137 0.05108499712221264 0.1193695062464204 
-0.1085718274872275 -0.03961977840012042 0.07145346733421941 -0.2007377889640585 0.09613964156267635 -0.03957894467331214 -0.0715074084863169 
0.007204493870816371 -0.04807563558188013 0.01187635755433622 -0.09722852370653612 -0.05435819961052504 0.04786860807239067 0.07846776743373592 
0.05259121787960136 0.0001118703683167437 0.08637609326260469 0.08564962919022671 -0.05251627349537208 0.05577815147507052 -0.1901665484258146 
-0.04636922057253976 -0.01798860731464485 0.02195406299944622 -0.09907014396241101 0.01542450368276765 0.0762454514560629 0.05219555555220298 
0.03005452025274828 -0.02254677188156819 0.09709736950004023 0.03980778679909064 0.005163343197791262 0.03683209779591602 -0.2253994751541713 
0.03346521517720304 -0.1859631736960758 0.08429399282444656 -0.03253655428909848 0.1173084367284242 -0.1207944462779208 -0.06190384461200403 
-0.04139027038479051 0.02292416177942431 -0.04093883147497528 -0.06662324951498286 -0.02385179515572809 0.08159395742137945 0.06253449118673748 
0.1266756266262788 0.03074119564803132 -0.09102042504871369 0.01914533198920065 0.04605150867633559 -0.0820096158494167 -0.2398460534609303 
0.1154091435320036 -0.0408906490583515 0.001519103375920909 0.002192529758449226 -0.136305450024408 -0.08488568659810644 0.1360938858709581 
-0.006889026275224409 0.05697601312188486 0.01334774350272038 -0.01411948227973164 -0.2728247585777872 0.06264591862655494 -0.124659450613065 
0.1140361986393554 -0.06419518465454821 -0.2026220168942554 0.09630499226759007 -0.07513660083545144 0.1018452447959123 0.009804690957533819 
-0.06311815338673633 -0.06745512522667389 -0.003660851195704438 -0.2552117614413273 0.1263304036971553 -0.09542470724824333 0.01964022737702129 
-0.03797020278640601 -0.02586068323903327 0.1979753791429635 -0.02161564716383419 0.02169541426058197 0.02570410387434841 -0.04415867057352369 
0.01633214686234288 -0.01379172104978083 0.1581920629144863 -0.02594171243864714 -0.07621333468895593 0.03923279404350102 0.07235286942072339 
-0.07071542855432916 -0.01188175362572153 0.008655578801210926 -0.05356718958697208 0.02560697266799501 0.06550520370675429 7.711109438921136e-06 
0.003431414946204677 -0.06777749914810033 0.01621217784269828 0.04951001297343591 0.002009536032183952 0.02985346104257935 -0.04785430872910192 
0.04825887575739533 -0.1451612802902506 0.07055950009363889 0.01703494785771769 0.1005769238128576 -0.03739114280980172 -0.02198071044713677 
-0.0008722505849515212 -0.04534491240704402 -0.02815608131369362 -0.1271683195748343 0.01259404031823253 0.01871937327540779 -0.2141690600597065 
0.05772792740466726 0.01863989942785585 -0.05637910289450918 0.05765765094067134 0.02472659969131943 -0.08613204543406169 0.0667494421061723 
0.05210866404312181 -0.05718781951061479 0.1500438080010332 -0.06300047037022417 -0.1725962001226045 -0.06653262995393107 0.2741797359362699 
0.0122123665439706 0.06250266407878408 -0.07433435933513152 -0.1021747666521738 -0.2776002057016243 0.1156753348686922 0.001836173089958587 
0.2274958628894203 -0.09106868636420092 -0.2054129889238811 0.01928553451948103 -0.009164369602702841 0.06179485798875062 -0.2131321826601976 
0.09731614499685891 -0.08874025122415832 -0.07585894977764016 -0.1082735137474692 -0.06296928231102286 -0.1022532880320472 0.1559690799546881 
-0.01964039639294102 0.0007444479206232663 0.185605000914444 0.008594593869085152 -0.00202645729500526 -0.01549478414355957 0.01009652586181547 
-0.0354586080438164 -0.06100073857378146 0.158089149370967 -0.08779935509815168 -0.07819616820744572 0.05386472924487766 0.1085189869296906 
-0.05569825188877012 -0.02530877744090745 -0.004856935624076796 -0.01979488977154684 0.01847445041934277 0.05342485756431243 -0.004026864327503183 
0.005565947922955177 0.02375345471179884 0.03467986465646458 0.02390440637282401 0.0303174192955473 -0.01343062692760067 0.1092865258327841 
0.005252220095888108 -0.1010442553061134 0.03398589561836766 0.01562652212900831 0.0111216331741318 0.03424891656523026 -0.1502815005272903 
-0.09317463322704142 -0.07459826072755958 -0.2212850668909001 0.1398956045256155 0.06604080424588146 -0.02038382139164789 -0.1557001005206441 
-0.04242747208501449 -0.01682440192136811 0.007602111751057094 0.03023842755785271 0.01458908868067772 -0.04207792219329864 -0.02681642767656684 
0.04686484929276503 -0.007319720766795767 0.06600333999802166 -0.1532570844779222 -0.2201435240279938 -0.0624468812982309 0.423158884184606 
0.01510313947225311 0.03905799675293371 0.1320085352842514 -0.1441233655817249 -0.3207303235342359 0.1330661384370003 -0.005570427133656799 
0.2218785298340197 -0.08360491086104695 -0.1523746009440068 -0.06513999616624695 0.01461272022267118 0.02436042911108271 -0.2789801250546832 
0.1737586933765947 -0.1215471088517215 -0.09567066619719856 -0.1000989963818414 0.02415642518736239 -0.1191863670553867 -0.02678012298457173 
0.0241252405952221 0.006456106136124788 0.1558504832601682 -0.1326243610854584 -0.0004471119519310522 -0.01604896491019834 0.09686137409946376 
-0.05336631563495219 -0.03653408140252812 0.07699342666691683 -0.173130270830151 -0.06858530896996724 0.04746088749155419 0.1755941688324364 
-0.06141908148846101 -0.01048626560818675 -0.01722355629111725 -0.0168177732410808 -0.02115620245644406 0.05514354876355035 0.07270194532787587 
0.0207625731231364 0.07721657896856769 0.03910028352675288 0.09808674895175498 -0.0209428881056531 -0.02480313910174413 -0.1564779588205654 
0.01508429285735223 -0.04723817562259259 -0.02699916133878594 0.09825369371114655 -0.002622402053954626 -0.001722063421030895 0.02086600852065638 
-0.07868530046857886 -0.05291460216289004 -0.1840410550485114 0.3004421285737963 0.06632897861109813 -0.01503226544494315 -0.3203395039641879 
-0.02134392503838896 -0.0441778805912525 0.03227428831466263 0.1403991112453857 0.009358895581401737 -0.002126203337153462 0.1320484692594336 
0.04018546717963774 0.03321764126565343 0.2186575668142506 -0.2776170338150548 -0.3091136800620466 -0.08787870127601308 0.4309524120011021 
-0.04395575989832713 -0.04066549332866125 -0.003047225362337056 -0.2390450186711565 -0.2547272605069576 0.1561211514389108 -0.1729100966476127 
0.2025058501376655 -0.03795404681510357 0.007308566234420334 -0.1794651174009682 -0.04441918819015885 -0.05842847154852074 -0.1772561950654867 
0.202624943597941 -0.1602176187216565 -0.08685773328074366 0.01456623539038039 0.1058640327471261 -0.09862634240641363 0.04791125304372264 
0.0098935922052409 -0.005627204893676344 0.1814130501326169 -0.1042674310913942 -0.001115684803727825 -0.001647786867982899 0.05795843688881713 
-0.07531790997878599 -0.02409054796394563 0.01120353299301366 -0.1341668527090885 -0.0411747562518061 0.04346149766048396 0.253414356291419 
-0.04644703968723016 0.00590532007639059 -0.03977136720673526 -0.009729022468494768 -0.03013265692450774 0.005783770640370204 0.2705870793187369 
0.04693329174490652 0.08903434325230168 0.04236001061278864 -0.01433724849402277 -0.03691908262437928 -0.05218038204354628 -0.08361798325955234 
0.004055436158356806 -0.04345933022724353 0.0272061465335366 0.1566082652642649 -0.02507184308383242 0.04247816103174838 -0.2527534812562479 
-0.03002125297103536 -0.09179162565259223 -0.1574008409343609 0.2935987074639497 0.03924288210763365 -0.02442818395372827 -0.3963962368547607 
0.05061312678991014 -0.07220459315838815 0.01754086267342484 0.07601573294533309 -0.06041878512862178 -0.01572225166051541 0.1862843458410431 
-0.0226411802728139 -0.06066412887724022 0.1772975891158863 -0.3349871698047012 -0.2971807819213887 -0.03975241713376069 0.1547100517113496 
0.05026989291391527 -0.01977282619412732 -0.1007927762069828 -0.2556241122875237 -0.2852549052240962 0.1002491258114567 -0.08580236523295305 
0.1097480991499877 0.02565635026557183 0.120362334977532 -0.2509876080439009 -0.04348105493507221 -0.06301249216030151 -0.04968876829984483 
0.09538381373057343 -0.09269824033080092 -0.1665485782353068 0.0007780905627359309 0.1553986262665126 -0.06319920534805749 -0.07348510164671589 
0.006734420722313106 -0.00361692655362448 0.03305510753838132 -0.06747705003480682 0.01281973178902784 -0.03048544748351185 0.04839963765164541 
-0.1049103741414276 -0.05686320505322897 -0.01138709181755855 0.02705734252377747 -0.02811845934174549 0.01520599263144803 0.09804777160948945 
-0.01676475927053098 -0.04972241993801275 0.06809208880286081 -0.03101449297401069 -0.0006883925371354274 -0.0268960840466663 0.2093906604852548 
0.02226942417840189 0.1291963051200565 0.09400288758160376 -0.1157862560201299 -0.05688037430719742 -0.01553538852589512 0.06410669651578753 
-0.009563921823089355 -0.1322407070340166 -0.007685209219510196 0.1548491704739095 -0.018118192221192 0.03210292202095134 -0.259171005047137 
-0.03033750828650494 -0.01964946994761593 -0.1226220396254983 0.1980819075167151 -0.06334584245936364 -0.02522409786726215 -0.06403719754948388 
0.1095651608347007 -0.07432633433136186 -0.03691692056471868 0.05646589517525986 -0.02073348412061047 0.01070014274960105 -0.04626780010346403 
-0.0299514511366635 -0.04474731666479038 0.02056750511336918 -0.3335087520354011 -0.2830410323000077 -0.05928997191194561 0.2393020383329002 
0.01611812547019426 -0.07428373142246282 -0.007965116772982681 -0.1008432522306641 -0.2370152179102771 0.08005122339344603 -0.1526673055771824 
0.02838182314223931 0.1085646873228301 0.09117729262456105 -0.2976582411576275 -0.03518721130980928 -0.021078407471179 0.06511103449956472 
0.03697062689831632 -0.1053841342055473 -0.08006304427530098 -0.09087782558505707 0.09274800906862699 -0.08776285993523979 0.02007414938686951 
-0.001667561622842235 -0.03351664319408758 -0.003053003147018067 0.07331609508012642 -0.001374985058790054 -0.03179515807968159 -0.01116604734956755 
-0.09362477368536229 -0.06420193955699846 -0.01380846896015585 0.03946135695890735 -0.007047668492126852 -0.03779473643644632 0.2113359088375476 
-0.06777143779133885 -0.092149903677314 0.1804196000541232 -0.1016636631683924 0.01998427324732361 -0.04723979380143989 0.1205183787075296 
-0.03138217922500566 0.1084687390312272 0.011601548354452 -0.07155760005775254 -0.1179677486507614 0.03317929475243097 0.0161700036798675 
-0.02225444314843474 -0.08756031573571042 0.06972783659501237 0.04641080385198357 -0.01957522873762213 0.0163494736676778 0.01621856058085066 
-0.02186940374864373 -0.006848031714120024 -0.0583210679643166 0.1492580447703455 -0.06778248047764272 -0.04423739399315246 -0.02806974461495763 
0.1395592451597426 -0.02111124760506358 -0.06621522654019962 0.001169896800026302 0.01908627276830546 -0.01602086619592486 0.05281356244713868 
0.02458950093806232 -0.08320151974479832 0.1101780445124102 -0.198418941222053 -0.218681195779619 -0.0390900909398961 0.2363052081220434 
0.0343413663972398 -0.02143143706198291 -0.1288360873427825 -0.06390182806749339 -0.1672559549930543 0.07278367605360679 -0.1558387284510123 
-0.08182850162631089 0.04778492620198207 0.0536176528568052 -0.2419074578822613 -0.1319090478037967 -0.0136530606238033 0.1811971924253497 
0.08254851619500651 -0.01187816774584762 -0.01275736884301238 -0.04836089481125296 0.05512810757768487 -0.1313359911122507 -0.0171131137097903 
-0.0583463512510683 -0.05067353894738795 -0.03178808135781936 -0.01688751519471663 -0.01412546163911835 -0.0403976933058315 0.08097458031836695 
-0.1350084790671941 -0.016860966117192 -0.1054945585744344 0.0842929406179754 -0.04226197216650957 -0.04813636981443681 0.2770128610050038 
-0.04894770217136328 -0.07129238368858114 0.1808110490898458 -0.1294493818947828 0.003335585811710924 -0.01304315388577808 -0.01765320711363347 
-0.06684349928757299 0.07020021520704435 0.04000279345929671 -0.1420583773238337 -0.02268454882568666 0.02019950439917237 0.0981926775304047 
-0.05769242108843865 -0.07438123393688173 0.08209038272448252 0.05936813611226401 -0.02489347773541314 0.01695075695572436 0.04344232641201908 
-0.009490693114323196 -0.001506725936160227 -0.03131850633211302 0.02512521316164992 -0.06523207615482908 -0.05367025338006119 0.08640146618362191 
0.1176156568688354 -0.0007530969193822783 -0.05041754827653087 -0.1795656547835141 -0.006975591073099551 -0.01726363821398244 0.007571753267773622 
0.1092401317186906 -0.08362511052664207 0.01551337131538682 -0.08331865533115908 -0.1414613008715254 -0.003496838759016411 0.1103265131242829 
0.07018968688694734 0.03489767908572889 -0.02099525073161297 0.04640606002974913 -0.1261923909148935 0.03450195873935703 -0.3334880379082839 
-0.116074771168475 0.07828876448484019 -0.06234794875374153 -0.2245581280823909 -0.04819360799764025 0.0007140699079291884 0.1790912596049383 
-0.01296495819254154 -0.02059984477519139 0.03781579606052915 -0.04280690554165015 -0.01887180665968892 -0.1706549113356842 0.06116217169928753 
-0.04181016094713505 -0.03017870028175297 -0.05475198618059794 -0.0174202695983893 -0.02090083868916861 -0.03912773775235955 0.1023505168313792 
-0.08075768820831822 0.04487541212008656 -0.0602177452710851 0.03944407107508432 -0.04995808115949896 -0.07012912177360509 0.2014606474006113 
-0.06439200737074002 -0.06063520599623146 0.1421167916882287 -0.1889084332552944 -0.001790079952931522 0.04555508280510558 0.01788330059716142 
-0.04801602604038895 0.03968444518709239 0.005829577403369837 -0.05723172256673615 0.03072552486111551 0.03618532162017369 0.04200826339855283 
-0.04237421496754007 -0.04164635862061357 0.04194164602960564 0.06768202689242818 -0.007707645609456896 -0.0117596753387683 0.02358762711158588 
-0.009659913059539097 -0.03059408059072163 0.007525976884656947 0.02823337685759829 -0.07402838552874781 -0.03516347289175619 0.1828793886032741 
0.02889413434197607 0.02627149624924614 -0.03315096321376059 -0.1054571683557719 -0.01755989701062206 -0.008994595915661485 0.009714901423317384 
0.1658990513744179 0.05931656069526082 -0.1109949588853119 -0.1422911334978067 -0.09170522642959703 -0.02301317972614043 -0.0215300782016169 
0.03908505622598353 0.001581967388864986 0.05419715944373623 -0.07654300036335877 -0.03511406682972921 0.02250375526098967 -0.1434529663216564 
-0.06562034998165329 -0.04811865619902476 -0.0164306408690297 -0.1095777460036866 -0.01113999661128022 -0.004007719805995634 0.01499641450149869 
0.009874072968470237 0.02403223382808087 0.1331147924774306 -0.1052938548338126 -0.01973128941388895 -0.1680902045992164 0.06989736433536781 
0.01786397056171081 0.05995224102988879 0.02439737966834398 -0.03767827174022036 -0.002181277347998516 -0.07149517258562015 -0.07491786289878417 
0.02140198473883717 0.0140450115198632 -0.05340529274606937 -0.08624457103445914 -0.02103740599645336 -0.02589052090333415 0.2035303616690059 
-0.02286147442355628 0.02434689910756139 0.002486204574862679 -0.09963820755831562 -0.05753891348535056 0.08175770683299645 0.2271149736846222 
0.003010052732381922 0.008390611372091194 0.06654039303684668 0.05616020208975649 0.0820472627120732 -0.02794980801974506 -0.3733314383953709 
-0.04497693323772012 -0.01329791864318953 0.02320433589145776 0.09194041899257595 -0.007801723797315934 -0.0039507700373071 0.08093496283073554 
-0.001944627741069649 -0.07163100554296284 0.02011566387142856 -0.007436281972861224 -0.03165510145134007 -0.02214315827258646 0.08853099981704309 
-0.01443902318996479 0.124284876960124 -0.03069684307376218 -0.1483371352897885 -0.08153965524961516 -0.009465631855153585 0.08370028041366968 
0.09841719846160213 0.04829035632385077 -0.04842810127623263 -0.2034481664649368 -0.006724023320398788 -0.002833101513217233 -0.01175181577230345 
0.09143775395503602 -0.07903914245264913 0.1208010313096879 -0.05839666792778948 0.03873806144220859 0.03721158462802771 -0.06209871709679859 
-0.02562069672675455 0.01113534080063132 -0.05786610177565574 -0.07945954639675973 -0.02406948334097025 -0.03507011037268316 0.05229431723578212 
0.0826522152351058 0.07884638267815475 0.01493212675467834 -0.1552197659106106 0.09174671913049313 -0.1051869802376566 -0.1342497076823354 
0.06423331836406304 0.0609352583986329 0.004674048492035157 -0.06777653877038975 -0.04828560818847451 -0.07856678918898696 0.0855922477919461 
-0.01719653107180284 0.09389950931172331 -0.05133368518526027 -0.1655696232531334 0.08511686503549971 -0.05823673635213257 -0.10988543205124 
0.04587243167400519 0.04149145568117469 -0.1000234246637473 0.1463652183639679 -0.1043446090669455 0.1369867092896943 -0.08035648192613984 
-0.00260518329247417 -0.002305696622797088 0.1724826864579779 -0.03078759708499909 0.1445761656736768 -0.05326993128382963 -0.1289842409484388 
0.0004627583114439758 -0.02785951652001418 -0.07616206466122249 0.07750316028068918 -0.0160521253120884 -0.001575738646699011 0.08927188330511281 
0.005803351653904081 -0.07692667178411834 0.05167257540992301 -0.00960535174983867 -0.04134536064940027 0.01259130232541494 0.07071954335319215 
-0.01396377917796195 0.1314808799287346 -0.009674790105082032 -0.143381758005862 -0.02056835539944548 -0.002136206370525908 0.03559913160998631 
0.02379655741381814 0.08760356391900304 0.03936081992415312 -0.1937703320842128 0.07208967258978202 0.02623106810900232 -0.1345014764197113 
0.01422446119357339 -0.154825525495811 0.007528965451804944 -0.0461666714807198 0.05366480564417997 0.05660493860527825 -0.1087290962003509 
0.1543851864160531 0.05049783057364751 -0.01448995166924206 -0.1209491433541965 0.09166947232555096 -0.05800874525484012 -0.1329392506062043 
0.06543628731175741 0.08322839296214748 -0.07063723087739325 -0.1071371680405012 0.05754955237307471 -0.09732225558564113 0.04764445846054385 
0.095189355503656 0.1875710661478121 -0.02433241613861809 0.001357342855019895 -0.03741685282416669 -0.1091188633224405 -0.2868104147680548 
-0.1101566221551698 0.03082001941680403 0.01469507090467308 -0.1566839591959143 0.07225215772455994 -0.03337372579673949 0.07609976460724971 
0.1212779778658277 -0.09077015179046585 -0.1142155459599764 0.1319249617722129 -0.03768782092402121 0.1394507017041852 -0.06337481315245481 
-0.03439822357464611 -0.06482790361948026 0.09477131324493628 0.05468268673322783 0.08774575596456143 -0.03008901192072614 -0.004344321013683783 
0.04882088450632536 -0.02117715704082117 -0.06518036792797623 -0.01016129286592336 0.0004825181114219745 0.0005409780901788401 0.1718538082758898 
0.03817805371237761 -0.03704628265160374 0.0546776007915662 -0.04733203947536118 0.003057013396913842 0.003006987310094194 -0.1115919361753787 
-0.0008861006485963388 0.1097764475588254 0.02851307131169143 -0.074998151946196 0.01879605882474459 0.05112960932370519 -0.08705401734722297 
0.03335095519434128 0.1088556574549408 -0.1670732250707565 -0.1195736340657704 0.1027250674770192 0.003809302216234262 -0.1896201283925896 
0.0363080255345472 -0.2215008175724605 0.02596410097356418 -0.1272238529288437 0.07835969608457385 0.0777183034820314 0.07807692168971152 
0.1755636943594708 -0.0573312901339559 0.03236337710407428 0.03150041324696134 0.04902641127249165 -0.07741557210437588 -0.1845090173957857 
0.1009080776634899 0.1601451149837975 -0.1529953440576234 -0.1119781498869225 0.009650181089200302 -0.0999892493606878 0.03373303941063482 
0.01262789079186766 0.2276185178968158 -0.05722146422273488 0.01597893037293757 0.05106361370896795 -0.1266353190715714 -0.07955613739243431 
-0.1192625441676856 -0.09814499576570146 0.1183866000822264 -0.05439165763393533 -0.0677321632388021 0.0624886388085437 0.0556417903223324 
